
Options: -C 0.25 -M 2 

=== Classifier model (full training set) ===

J48 pruned tree
------------------

PAR_SFM24 <= 0.077309
|   PAR_SFM15 <= 0.064531
|   |   PAR_ASEV2 <= 0.001446
|   |   |   PAR_SFM22 <= 0.084566
|   |   |   |   PAR_PEAK_RMS_TOT <= 4.4668
|   |   |   |   |   PAR_SFM24 <= 0.051673
|   |   |   |   |   |   PAR_SFM_MV <= 0.000529
|   |   |   |   |   |   |   PAR_ASEV5 <= 0.000244: Rock (3.0)
|   |   |   |   |   |   |   PAR_ASEV5 > 0.000244: Metal (7.0)
|   |   |   |   |   |   PAR_SFM_MV > 0.000529
|   |   |   |   |   |   |   PAR_PEAK_RMS_TOT <= 4.4027
|   |   |   |   |   |   |   |   PAR_ASE_MV <= 0.000363: Metal (3.0/1.0)
|   |   |   |   |   |   |   |   PAR_ASE_MV > 0.000363
|   |   |   |   |   |   |   |   |   PAR_ASEV5 <= 0.00028
|   |   |   |   |   |   |   |   |   |   PAR_ASEV26 <= 0.000317: Rock (6.0/1.0)
|   |   |   |   |   |   |   |   |   |   PAR_ASEV26 > 0.000317: Pop (4.0)
|   |   |   |   |   |   |   |   |   PAR_ASEV5 > 0.00028
|   |   |   |   |   |   |   |   |   |   PAR_ASE23 <= -0.14724: Pop (151.0/1.0)
|   |   |   |   |   |   |   |   |   |   PAR_ASE23 > -0.14724
|   |   |   |   |   |   |   |   |   |   |   PAR_SFM_MV <= 0.000694: Pop (10.0/1.0)
|   |   |   |   |   |   |   |   |   |   |   PAR_SFM_MV > 0.000694: Rock (3.0/1.0)
|   |   |   |   |   |   |   PAR_PEAK_RMS_TOT > 4.4027
|   |   |   |   |   |   |   |   PAR_SFM2 <= 0.004926: Blues (2.0)
|   |   |   |   |   |   |   |   PAR_SFM2 > 0.004926
|   |   |   |   |   |   |   |   |   PAR_SFMV24 <= 0.000978: Pop (5.0)
|   |   |   |   |   |   |   |   |   PAR_SFMV24 > 0.000978: Metal (5.0)
|   |   |   |   |   PAR_SFM24 > 0.051673
|   |   |   |   |   |   PAR_ASEV8 <= 0.000336
|   |   |   |   |   |   |   PAR_SFMV23 <= 0.000277: Rock (7.0/1.0)
|   |   |   |   |   |   |   PAR_SFMV23 > 0.000277
|   |   |   |   |   |   |   |   PAR_THR_2RMS_TOT <= 0.025442: Metal (15.0/1.0)
|   |   |   |   |   |   |   |   PAR_THR_2RMS_TOT > 0.025442
|   |   |   |   |   |   |   |   |   PAR_ASEV24 <= 0.000301: Rock (3.0/1.0)
|   |   |   |   |   |   |   |   |   PAR_ASEV24 > 0.000301: Blues (2.0)
|   |   |   |   |   |   PAR_ASEV8 > 0.000336
|   |   |   |   |   |   |   PAR_ASEV24 <= 0.000331
|   |   |   |   |   |   |   |   PAR_SFMV18 <= 0.000387: Rock (4.0)
|   |   |   |   |   |   |   |   PAR_SFMV18 > 0.000387: Pop (8.0/1.0)
|   |   |   |   |   |   |   PAR_ASEV24 > 0.000331: Blues (9.0)
|   |   |   |   PAR_PEAK_RMS_TOT > 4.4668
|   |   |   |   |   PAR_MFCC20 <= -0.14172
|   |   |   |   |   |   PAR_MFCC1 <= 0.044249: Blues (5.0/1.0)
|   |   |   |   |   |   PAR_MFCC1 > 0.044249
|   |   |   |   |   |   |   PAR_SFM4 <= 0.050496: Blues (2.0)
|   |   |   |   |   |   |   PAR_SFM4 > 0.050496: Pop (34.0)
|   |   |   |   |   PAR_MFCC20 > -0.14172
|   |   |   |   |   |   PAR_ASE23 <= -0.17278
|   |   |   |   |   |   |   PAR_SFM15 <= 0.05945
|   |   |   |   |   |   |   |   PAR_MFCC1 <= -0.20398
|   |   |   |   |   |   |   |   |   PAR_SFMV8 <= 0.000223: Metal (3.0)
|   |   |   |   |   |   |   |   |   PAR_SFMV8 > 0.000223: Blues (3.0/1.0)
|   |   |   |   |   |   |   |   PAR_MFCC1 > -0.20398
|   |   |   |   |   |   |   |   |   PAR_MFCC13 <= -0.19455: Metal (3.0)
|   |   |   |   |   |   |   |   |   PAR_MFCC13 > -0.19455
|   |   |   |   |   |   |   |   |   |   PAR_ASE32 <= -0.23236
|   |   |   |   |   |   |   |   |   |   |   PAR_ASEV24 <= 0.000399: Pop (5.0)
|   |   |   |   |   |   |   |   |   |   |   PAR_ASEV24 > 0.000399: Blues (8.0)
|   |   |   |   |   |   |   |   |   |   PAR_ASE32 > -0.23236: Pop (42.0/1.0)
|   |   |   |   |   |   |   PAR_SFM15 > 0.05945
|   |   |   |   |   |   |   |   PAR_SFMV8 <= 0.000224: Metal (8.0)
|   |   |   |   |   |   |   |   PAR_SFMV8 > 0.000224: Rock (3.0/1.0)
|   |   |   |   |   |   PAR_ASE23 > -0.17278
|   |   |   |   |   |   |   PAR_SFM16 <= 0.053172
|   |   |   |   |   |   |   |   PAR_ASEV5 <= 0.000232
|   |   |   |   |   |   |   |   |   PAR_SFMV23 <= 0.000707
|   |   |   |   |   |   |   |   |   |   PAR_SFMV24 <= 0.00119: Pop (18.0/1.0)
|   |   |   |   |   |   |   |   |   |   PAR_SFMV24 > 0.00119: Metal (2.0)
|   |   |   |   |   |   |   |   |   PAR_SFMV23 > 0.000707
|   |   |   |   |   |   |   |   |   |   PAR_TC <= 2.5279: Metal (6.0)
|   |   |   |   |   |   |   |   |   |   PAR_TC > 2.5279: Rock (4.0/1.0)
|   |   |   |   |   |   |   |   PAR_ASEV5 > 0.000232
|   |   |   |   |   |   |   |   |   PAR_ASE2 <= -0.1151
|   |   |   |   |   |   |   |   |   |   PAR_ASE2 <= -0.18809
|   |   |   |   |   |   |   |   |   |   |   PAR_ASE22 <= -0.13492
|   |   |   |   |   |   |   |   |   |   |   |   PAR_ASE15 <= -0.14702: Blues (12.0/1.0)
|   |   |   |   |   |   |   |   |   |   |   |   PAR_ASE15 > -0.14702: Pop (12.0)
|   |   |   |   |   |   |   |   |   |   |   PAR_ASE22 > -0.13492: Rock (8.0/1.0)
|   |   |   |   |   |   |   |   |   |   PAR_ASE2 > -0.18809
|   |   |   |   |   |   |   |   |   |   |   PAR_ASEV1 <= 0.00095
|   |   |   |   |   |   |   |   |   |   |   |   PAR_SFMV18 <= 0.001167
|   |   |   |   |   |   |   |   |   |   |   |   |   PAR_ASS_V <= 0.068865
|   |   |   |   |   |   |   |   |   |   |   |   |   |   PAR_SFMV8 <= 0.000125: Pop (2.0/1.0)
|   |   |   |   |   |   |   |   |   |   |   |   |   |   PAR_SFMV8 > 0.000125
|   |   |   |   |   |   |   |   |   |   |   |   |   |   |   PAR_ASEV24 <= 0.000258: Metal (9.0/1.0)
|   |   |   |   |   |   |   |   |   |   |   |   |   |   |   PAR_ASEV24 > 0.000258: Blues (23.0)
|   |   |   |   |   |   |   |   |   |   |   |   |   PAR_ASS_V > 0.068865
|   |   |   |   |   |   |   |   |   |   |   |   |   |   PAR_THR_2RMS_TOT <= 0.023152
|   |   |   |   |   |   |   |   |   |   |   |   |   |   |   PAR_SFMV8 <= 0.000159: Pop (2.0/1.0)
|   |   |   |   |   |   |   |   |   |   |   |   |   |   |   PAR_SFMV8 > 0.000159
|   |   |   |   |   |   |   |   |   |   |   |   |   |   |   |   PAR_ASEV5 <= 0.00038
|   |   |   |   |   |   |   |   |   |   |   |   |   |   |   |   |   PAR_SFM2 <= 0.005441: Rock (6.0)
|   |   |   |   |   |   |   |   |   |   |   |   |   |   |   |   |   PAR_SFM2 > 0.005441: Blues (3.0)
|   |   |   |   |   |   |   |   |   |   |   |   |   |   |   |   PAR_ASEV5 > 0.00038
|   |   |   |   |   |   |   |   |   |   |   |   |   |   |   |   |   PAR_ASEV8 <= 0.000334
|   |   |   |   |   |   |   |   |   |   |   |   |   |   |   |   |   |   PAR_ASE15 <= -0.14762: Blues (6.0)
|   |   |   |   |   |   |   |   |   |   |   |   |   |   |   |   |   |   PAR_ASE15 > -0.14762: Pop (3.0)
|   |   |   |   |   |   |   |   |   |   |   |   |   |   |   |   |   PAR_ASEV8 > 0.000334: Blues (31.0)
|   |   |   |   |   |   |   |   |   |   |   |   |   |   PAR_THR_2RMS_TOT > 0.023152
|   |   |   |   |   |   |   |   |   |   |   |   |   |   |   PAR_SFMV24 <= 0.000303
|   |   |   |   |   |   |   |   |   |   |   |   |   |   |   |   PAR_ASE17 <= -0.17048: Rock (3.0)
|   |   |   |   |   |   |   |   |   |   |   |   |   |   |   |   PAR_ASE17 > -0.17048: Blues (32.0/1.0)
|   |   |   |   |   |   |   |   |   |   |   |   |   |   |   PAR_SFMV24 > 0.000303
|   |   |   |   |   |   |   |   |   |   |   |   |   |   |   |   PAR_ASE33 <= -0.31712
|   |   |   |   |   |   |   |   |   |   |   |   |   |   |   |   |   PAR_ASS_V <= 0.15461
|   |   |   |   |   |   |   |   |   |   |   |   |   |   |   |   |   |   PAR_ASE14 <= -0.12636: Blues (35.0)
|   |   |   |   |   |   |   |   |   |   |   |   |   |   |   |   |   |   PAR_ASE14 > -0.12636: Metal (2.0)
|   |   |   |   |   |   |   |   |   |   |   |   |   |   |   |   |   PAR_ASS_V > 0.15461: Metal (3.0/1.0)
|   |   |   |   |   |   |   |   |   |   |   |   |   |   |   |   PAR_ASE33 > -0.31712: Blues (720.0/7.0)
|   |   |   |   |   |   |   |   |   |   |   |   PAR_SFMV18 > 0.001167
|   |   |   |   |   |   |   |   |   |   |   |   |   PAR_ASE2 <= -0.16862: Pop (3.0)
|   |   |   |   |   |   |   |   |   |   |   |   |   PAR_ASE2 > -0.16862
|   |   |   |   |   |   |   |   |   |   |   |   |   |   PAR_ASEV5 <= 0.00038: Pop (3.0/1.0)
|   |   |   |   |   |   |   |   |   |   |   |   |   |   PAR_ASEV5 > 0.00038: Blues (11.0)
|   |   |   |   |   |   |   |   |   |   |   PAR_ASEV1 > 0.00095
|   |   |   |   |   |   |   |   |   |   |   |   PAR_SFM22 <= 0.063046: Blues (10.0/1.0)
|   |   |   |   |   |   |   |   |   |   |   |   PAR_SFM22 > 0.063046
|   |   |   |   |   |   |   |   |   |   |   |   |   PAR_SFMV8 <= 0.000132: Metal (2.0)
|   |   |   |   |   |   |   |   |   |   |   |   |   PAR_SFMV8 > 0.000132
|   |   |   |   |   |   |   |   |   |   |   |   |   |   PAR_MFCC13 <= 0.013956: Pop (3.0)
|   |   |   |   |   |   |   |   |   |   |   |   |   |   PAR_MFCC13 > 0.013956: Rock (5.0)
|   |   |   |   |   |   |   |   |   PAR_ASE2 > -0.1151
|   |   |   |   |   |   |   |   |   |   PAR_MFCC1 <= 0.087204: Metal (19.0/1.0)
|   |   |   |   |   |   |   |   |   |   PAR_MFCC1 > 0.087204
|   |   |   |   |   |   |   |   |   |   |   PAR_ASE32 <= -0.23396: Blues (15.0/1.0)
|   |   |   |   |   |   |   |   |   |   |   PAR_ASE32 > -0.23396: Pop (3.0)
|   |   |   |   |   |   |   PAR_SFM16 > 0.053172
|   |   |   |   |   |   |   |   PAR_ASEV26 <= 0.000214: Metal (27.0/1.0)
|   |   |   |   |   |   |   |   PAR_ASEV26 > 0.000214: Blues (7.0/1.0)
|   |   |   PAR_SFM22 > 0.084566
|   |   |   |   PAR_MFCC1 <= 1.2459
|   |   |   |   |   PAR_SFMV22 <= 0.000732
|   |   |   |   |   |   PAR_ASC_V <= 0.73502
|   |   |   |   |   |   |   PAR_SFM24 <= 0.045403
|   |   |   |   |   |   |   |   PAR_SFM8 <= 0.036142
|   |   |   |   |   |   |   |   |   PAR_SFM_MV <= 0.000465: Rock (2.0)
|   |   |   |   |   |   |   |   |   PAR_SFM_MV > 0.000465: Pop (46.0)
|   |   |   |   |   |   |   |   PAR_SFM8 > 0.036142: Rock (7.0)
|   |   |   |   |   |   |   PAR_SFM24 > 0.045403
|   |   |   |   |   |   |   |   PAR_SFM_MV <= 0.000671
|   |   |   |   |   |   |   |   |   PAR_ASE_MV <= 0.00052
|   |   |   |   |   |   |   |   |   |   PAR_THR_2RMS_TOT <= 0.016259: Pop (7.0/1.0)
|   |   |   |   |   |   |   |   |   |   PAR_THR_2RMS_TOT > 0.016259
|   |   |   |   |   |   |   |   |   |   |   PAR_SFMV24 <= 0.000326
|   |   |   |   |   |   |   |   |   |   |   |   PAR_ASE_MV <= 0.000472
|   |   |   |   |   |   |   |   |   |   |   |   |   PAR_SFM4 <= 0.08325
|   |   |   |   |   |   |   |   |   |   |   |   |   |   PAR_SFMV24 <= 0.000149: Rock (18.0)
|   |   |   |   |   |   |   |   |   |   |   |   |   |   PAR_SFMV24 > 0.000149
|   |   |   |   |   |   |   |   |   |   |   |   |   |   |   PAR_ASEV1 <= 0.0005
|   |   |   |   |   |   |   |   |   |   |   |   |   |   |   |   PAR_ASE32 <= -0.22821: Pop (6.0)
|   |   |   |   |   |   |   |   |   |   |   |   |   |   |   |   PAR_ASE32 > -0.22821: Rock (3.0)
|   |   |   |   |   |   |   |   |   |   |   |   |   |   |   PAR_ASEV1 > 0.0005: Rock (7.0)
|   |   |   |   |   |   |   |   |   |   |   |   |   PAR_SFM4 > 0.08325: Rock (258.0/1.0)
|   |   |   |   |   |   |   |   |   |   |   |   PAR_ASE_MV > 0.000472
|   |   |   |   |   |   |   |   |   |   |   |   |   PAR_SFM11 <= 0.037388: Pop (5.0/1.0)
|   |   |   |   |   |   |   |   |   |   |   |   |   PAR_SFM11 > 0.037388: Rock (13.0)
|   |   |   |   |   |   |   |   |   |   |   PAR_SFMV24 > 0.000326
|   |   |   |   |   |   |   |   |   |   |   |   PAR_SC_V <= 57644: Pop (2.0)
|   |   |   |   |   |   |   |   |   |   |   |   PAR_SC_V > 57644: Rock (4.0)
|   |   |   |   |   |   |   |   |   PAR_ASE_MV > 0.00052: Pop (6.0/1.0)
|   |   |   |   |   |   |   |   PAR_SFM_MV > 0.000671: Pop (8.0/1.0)
|   |   |   |   |   |   PAR_ASC_V > 0.73502
|   |   |   |   |   |   |   PAR_SFM_MV <= 0.000439: Rock (11.0/1.0)
|   |   |   |   |   |   |   PAR_SFM_MV > 0.000439
|   |   |   |   |   |   |   |   PAR_MFCC1 <= -1.2425
|   |   |   |   |   |   |   |   |   PAR_SFMV13 <= 0.00067: Blues (3.0)
|   |   |   |   |   |   |   |   |   PAR_SFMV13 > 0.00067: Rock (2.0)
|   |   |   |   |   |   |   |   PAR_MFCC1 > -1.2425
|   |   |   |   |   |   |   |   |   PAR_PEAK_RMS_TOT <= 5.2767
|   |   |   |   |   |   |   |   |   |   PAR_SFM24 <= 0.061887: Pop (151.0/1.0)
|   |   |   |   |   |   |   |   |   |   PAR_SFM24 > 0.061887
|   |   |   |   |   |   |   |   |   |   |   PAR_SFM_MV <= 0.00048: Rock (4.0)
|   |   |   |   |   |   |   |   |   |   |   PAR_SFM_MV > 0.00048
|   |   |   |   |   |   |   |   |   |   |   |   PAR_MFCC20 <= 0.005236
|   |   |   |   |   |   |   |   |   |   |   |   |   PAR_TC <= 2.5722: Pop (22.0)
|   |   |   |   |   |   |   |   |   |   |   |   |   PAR_TC > 2.5722: Rock (3.0/1.0)
|   |   |   |   |   |   |   |   |   |   |   |   PAR_MFCC20 > 0.005236: Rock (2.0)
|   |   |   |   |   |   |   |   |   PAR_PEAK_RMS_TOT > 5.2767
|   |   |   |   |   |   |   |   |   |   PAR_SFMV17 <= 0.000585
|   |   |   |   |   |   |   |   |   |   |   PAR_SC_V <= 2604700: Rock (13.0)
|   |   |   |   |   |   |   |   |   |   |   PAR_SC_V > 2604700: Pop (2.0)
|   |   |   |   |   |   |   |   |   |   PAR_SFMV17 > 0.000585
|   |   |   |   |   |   |   |   |   |   |   PAR_ASE14 <= -0.13215: Pop (21.0)
|   |   |   |   |   |   |   |   |   |   |   PAR_ASE14 > -0.13215: Rock (3.0/1.0)
|   |   |   |   |   PAR_SFMV22 > 0.000732
|   |   |   |   |   |   PAR_SFM9 <= 0.067717
|   |   |   |   |   |   |   PAR_SFM10 <= 0.039451: Metal (6.0/1.0)
|   |   |   |   |   |   |   PAR_SFM10 > 0.039451
|   |   |   |   |   |   |   |   PAR_ASE2 <= -0.13818: Rock (5.0)
|   |   |   |   |   |   |   |   PAR_ASE2 > -0.13818: Pop (8.0)
|   |   |   |   |   |   PAR_SFM9 > 0.067717: Blues (9.0)
|   |   |   |   PAR_MFCC1 > 1.2459
|   |   |   |   |   PAR_SFM_MV <= 0.00057
|   |   |   |   |   |   PAR_ASE17 <= -0.12919: Rock (6.0)
|   |   |   |   |   |   PAR_ASE17 > -0.12919: Metal (4.0/1.0)
|   |   |   |   |   PAR_SFM_MV > 0.00057
|   |   |   |   |   |   PAR_SFM11 <= 0.025326
|   |   |   |   |   |   |   PAR_ASE23 <= -0.18245: Metal (4.0)
|   |   |   |   |   |   |   PAR_ASE23 > -0.18245: Pop (6.0)
|   |   |   |   |   |   PAR_SFM11 > 0.025326
|   |   |   |   |   |   |   PAR_ASEV1 <= 0.000564
|   |   |   |   |   |   |   |   PAR_MFCC1 <= 2.6249: Blues (31.0)
|   |   |   |   |   |   |   |   PAR_MFCC1 > 2.6249: Pop (2.0/1.0)
|   |   |   |   |   |   |   PAR_ASEV1 > 0.000564: Pop (2.0)
|   |   PAR_ASEV2 > 0.001446
|   |   |   PAR_ASE_MV <= 0.000512
|   |   |   |   PAR_MFCC1 <= -0.28122: Rock (15.0)
|   |   |   |   PAR_MFCC1 > -0.28122
|   |   |   |   |   PAR_ASEV5 <= 0.00033: Rock (3.0/1.0)
|   |   |   |   |   PAR_ASEV5 > 0.00033: Pop (12.0/1.0)
|   |   |   PAR_ASE_MV > 0.000512
|   |   |   |   PAR_ASEV16 <= 0.000286
|   |   |   |   |   PAR_SFM22 <= 0.082106: Metal (6.0/1.0)
|   |   |   |   |   PAR_SFM22 > 0.082106: Pop (8.0)
|   |   |   |   PAR_ASEV16 > 0.000286
|   |   |   |   |   PAR_SFMV13 <= 0.000551
|   |   |   |   |   |   PAR_SFM2 <= 0.005315
|   |   |   |   |   |   |   PAR_SFMV13 <= 0.000485
|   |   |   |   |   |   |   |   PAR_MFCC20 <= -0.016672: Pop (4.0)
|   |   |   |   |   |   |   |   PAR_MFCC20 > -0.016672: Rock (2.0)
|   |   |   |   |   |   |   PAR_SFMV13 > 0.000485: Pop (7.0)
|   |   |   |   |   |   PAR_SFM2 > 0.005315: Rock (5.0)
|   |   |   |   |   PAR_SFMV13 > 0.000551: Pop (725.0/13.0)
|   PAR_SFM15 > 0.064531
|   |   PAR_ASEV3 <= 0.00141
|   |   |   PAR_SFMV24 <= 0.000316
|   |   |   |   PAR_THR_2RMS_TOT <= 0.030027
|   |   |   |   |   PAR_SFM24 <= 0.037677
|   |   |   |   |   |   PAR_ASEV26 <= 0.000192
|   |   |   |   |   |   |   PAR_ASE2 <= -0.14254: Metal (4.0)
|   |   |   |   |   |   |   PAR_ASE2 > -0.14254: Rock (5.0)
|   |   |   |   |   |   PAR_ASEV26 > 0.000192: Pop (3.0)
|   |   |   |   |   PAR_SFM24 > 0.037677
|   |   |   |   |   |   PAR_ASE2 <= -0.10008
|   |   |   |   |   |   |   PAR_SFMV24 <= 0.000209: Rock (596.0/4.0)
|   |   |   |   |   |   |   PAR_SFMV24 > 0.000209
|   |   |   |   |   |   |   |   PAR_SFMV24 <= 0.000278
|   |   |   |   |   |   |   |   |   PAR_ASE_MV <= 0.00043: Rock (16.0)
|   |   |   |   |   |   |   |   |   PAR_ASE_MV > 0.00043
|   |   |   |   |   |   |   |   |   |   PAR_SFM8 <= 0.035408: Pop (4.0)
|   |   |   |   |   |   |   |   |   |   PAR_SFM8 > 0.035408: Rock (3.0)
|   |   |   |   |   |   |   |   PAR_SFMV24 > 0.000278: Pop (6.0/1.0)
|   |   |   |   |   |   PAR_ASE2 > -0.10008
|   |   |   |   |   |   |   PAR_ASE_MV <= 0.000353: Rock (16.0/1.0)
|   |   |   |   |   |   |   PAR_ASE_MV > 0.000353: Pop (17.0/1.0)
|   |   |   |   PAR_THR_2RMS_TOT > 0.030027
|   |   |   |   |   PAR_ASEV24 <= 0.000669
|   |   |   |   |   |   PAR_ASE2 <= -0.14552: Rock (6.0/1.0)
|   |   |   |   |   |   PAR_ASE2 > -0.14552
|   |   |   |   |   |   |   PAR_SFM2 <= 0.005996
|   |   |   |   |   |   |   |   PAR_SFMV24 <= 0.000126
|   |   |   |   |   |   |   |   |   PAR_SFMV24 <= 0.000098: Pop (6.0)
|   |   |   |   |   |   |   |   |   PAR_SFMV24 > 0.000098: Rock (2.0)
|   |   |   |   |   |   |   |   PAR_SFMV24 > 0.000126: Pop (29.0)
|   |   |   |   |   |   |   PAR_SFM2 > 0.005996: Rock (2.0)
|   |   |   |   |   PAR_ASEV24 > 0.000669: Rock (4.0/1.0)
|   |   |   PAR_SFMV24 > 0.000316
|   |   |   |   PAR_MFCC1 <= 0.58313
|   |   |   |   |   PAR_ASE22 <= -0.14339
|   |   |   |   |   |   PAR_SFMV22 <= 0.000397
|   |   |   |   |   |   |   PAR_SFM_MV <= 0.000466: Rock (5.0/1.0)
|   |   |   |   |   |   |   PAR_SFM_MV > 0.000466: Pop (12.0)
|   |   |   |   |   |   PAR_SFMV22 > 0.000397
|   |   |   |   |   |   |   PAR_SFM16 <= 0.056876
|   |   |   |   |   |   |   |   PAR_SFM8 <= 0.031656
|   |   |   |   |   |   |   |   |   PAR_PEAK_RMS_TOT <= 4.2197
|   |   |   |   |   |   |   |   |   |   PAR_SFMV18 <= 0.000236: Rock (2.0)
|   |   |   |   |   |   |   |   |   |   PAR_SFMV18 > 0.000236: Pop (14.0)
|   |   |   |   |   |   |   |   |   PAR_PEAK_RMS_TOT > 4.2197: Metal (3.0)
|   |   |   |   |   |   |   |   PAR_SFM8 > 0.031656
|   |   |   |   |   |   |   |   |   PAR_MFCC13 <= 0.058607
|   |   |   |   |   |   |   |   |   |   PAR_ASEV26 <= 0.000336
|   |   |   |   |   |   |   |   |   |   |   PAR_SFMV24 <= 0.001447
|   |   |   |   |   |   |   |   |   |   |   |   PAR_MFCC20 <= -0.086832
|   |   |   |   |   |   |   |   |   |   |   |   |   PAR_ASEV8 <= 0.000268: Metal (5.0)
|   |   |   |   |   |   |   |   |   |   |   |   |   PAR_ASEV8 > 0.000268: Rock (5.0/1.0)
|   |   |   |   |   |   |   |   |   |   |   |   PAR_MFCC20 > -0.086832: Metal (59.0/1.0)
|   |   |   |   |   |   |   |   |   |   |   PAR_SFMV24 > 0.001447: Blues (3.0/1.0)
|   |   |   |   |   |   |   |   |   |   PAR_ASEV26 > 0.000336: Blues (2.0/1.0)
|   |   |   |   |   |   |   |   |   PAR_MFCC13 > 0.058607
|   |   |   |   |   |   |   |   |   |   PAR_ASE22 <= -0.16036
|   |   |   |   |   |   |   |   |   |   |   PAR_SFM9 <= 0.072587
|   |   |   |   |   |   |   |   |   |   |   |   PAR_ASE3 <= -0.1263: Blues (2.0)
|   |   |   |   |   |   |   |   |   |   |   |   PAR_ASE3 > -0.1263: Pop (4.0)
|   |   |   |   |   |   |   |   |   |   |   PAR_SFM9 > 0.072587: Metal (10.0)
|   |   |   |   |   |   |   |   |   |   PAR_ASE22 > -0.16036
|   |   |   |   |   |   |   |   |   |   |   PAR_ASE14 <= -0.15622
|   |   |   |   |   |   |   |   |   |   |   |   PAR_ASE13 <= -0.16413: Pop (2.0/1.0)
|   |   |   |   |   |   |   |   |   |   |   |   PAR_ASE13 > -0.16413: Metal (5.0)
|   |   |   |   |   |   |   |   |   |   |   PAR_ASE14 > -0.15622
|   |   |   |   |   |   |   |   |   |   |   |   PAR_ASE13 <= -0.13973
|   |   |   |   |   |   |   |   |   |   |   |   |   PAR_MFCC7 <= 0.16199
|   |   |   |   |   |   |   |   |   |   |   |   |   |   PAR_ASEV24 <= 0.000305: Rock (53.0/1.0)
|   |   |   |   |   |   |   |   |   |   |   |   |   |   PAR_ASEV24 > 0.000305
|   |   |   |   |   |   |   |   |   |   |   |   |   |   |   PAR_SC_V <= 162020: Rock (2.0)
|   |   |   |   |   |   |   |   |   |   |   |   |   |   |   PAR_SC_V > 162020: Metal (2.0)
|   |   |   |   |   |   |   |   |   |   |   |   |   PAR_MFCC7 > 0.16199: Metal (2.0)
|   |   |   |   |   |   |   |   |   |   |   |   PAR_ASE13 > -0.13973
|   |   |   |   |   |   |   |   |   |   |   |   |   PAR_SFMV24 <= 0.001302
|   |   |   |   |   |   |   |   |   |   |   |   |   |   PAR_PEAK_RMS_TOT <= 3.0812: Rock (2.0)
|   |   |   |   |   |   |   |   |   |   |   |   |   |   PAR_PEAK_RMS_TOT > 3.0812: Metal (12.0)
|   |   |   |   |   |   |   |   |   |   |   |   |   PAR_SFMV24 > 0.001302: Rock (3.0)
|   |   |   |   |   |   |   PAR_SFM16 > 0.056876
|   |   |   |   |   |   |   |   PAR_ASEV1 <= 0.000622
|   |   |   |   |   |   |   |   |   PAR_PEAK_RMS_TOT <= 4.659
|   |   |   |   |   |   |   |   |   |   PAR_ASE2 <= -0.11535
|   |   |   |   |   |   |   |   |   |   |   PAR_MFCC13 <= 0.047967
|   |   |   |   |   |   |   |   |   |   |   |   PAR_ASEV5 <= 0.00026: Rock (2.0)
|   |   |   |   |   |   |   |   |   |   |   |   PAR_ASEV5 > 0.00026: Metal (15.0)
|   |   |   |   |   |   |   |   |   |   |   PAR_MFCC13 > 0.047967
|   |   |   |   |   |   |   |   |   |   |   |   PAR_ASE3 <= -0.10636: Rock (25.0/1.0)
|   |   |   |   |   |   |   |   |   |   |   |   PAR_ASE3 > -0.10636: Metal (3.0)
|   |   |   |   |   |   |   |   |   |   PAR_ASE2 > -0.11535: Metal (19.0)
|   |   |   |   |   |   |   |   |   PAR_PEAK_RMS_TOT > 4.659: Metal (119.0)
|   |   |   |   |   |   |   |   PAR_ASEV1 > 0.000622
|   |   |   |   |   |   |   |   |   PAR_ASEV26 <= 0.000219: Metal (350.0/1.0)
|   |   |   |   |   |   |   |   |   PAR_ASEV26 > 0.000219
|   |   |   |   |   |   |   |   |   |   PAR_SFMV18 <= 0.000204: Rock (2.0)
|   |   |   |   |   |   |   |   |   |   PAR_SFMV18 > 0.000204: Metal (14.0/2.0)
|   |   |   |   |   PAR_ASE22 > -0.14339
|   |   |   |   |   |   PAR_ASE17 <= -0.16051
|   |   |   |   |   |   |   PAR_SFMV23 <= 0.000158: Rock (2.0)
|   |   |   |   |   |   |   PAR_SFMV23 > 0.000158
|   |   |   |   |   |   |   |   PAR_MFCC1 <= -0.77305: Metal (38.0)
|   |   |   |   |   |   |   |   PAR_MFCC1 > -0.77305
|   |   |   |   |   |   |   |   |   PAR_ASE2 <= -0.14125: Metal (2.0)
|   |   |   |   |   |   |   |   |   PAR_ASE2 > -0.14125: Rock (2.0)
|   |   |   |   |   |   PAR_ASE17 > -0.16051
|   |   |   |   |   |   |   PAR_SFM2 <= 0.004614
|   |   |   |   |   |   |   |   PAR_SFM24 <= 0.044329: Rock (4.0)
|   |   |   |   |   |   |   |   PAR_SFM24 > 0.044329: Pop (3.0)
|   |   |   |   |   |   |   PAR_SFM2 > 0.004614
|   |   |   |   |   |   |   |   PAR_MFCC13 <= 0.046088
|   |   |   |   |   |   |   |   |   PAR_ASEV16 <= 0.000478
|   |   |   |   |   |   |   |   |   |   PAR_ASS_V <= 0.081649
|   |   |   |   |   |   |   |   |   |   |   PAR_PEAK_RMS10FR_VAR <= 0.009146: Rock (2.0)
|   |   |   |   |   |   |   |   |   |   |   PAR_PEAK_RMS10FR_VAR > 0.009146
|   |   |   |   |   |   |   |   |   |   |   |   PAR_ASE2 <= -0.12914: Metal (36.0)
|   |   |   |   |   |   |   |   |   |   |   |   PAR_ASE2 > -0.12914: Rock (3.0/1.0)
|   |   |   |   |   |   |   |   |   |   PAR_ASS_V > 0.081649
|   |   |   |   |   |   |   |   |   |   |   PAR_SFMV18 <= 0.000325: Rock (9.0)
|   |   |   |   |   |   |   |   |   |   |   PAR_SFMV18 > 0.000325: Metal (4.0)
|   |   |   |   |   |   |   |   |   PAR_ASEV16 > 0.000478: Rock (9.0)
|   |   |   |   |   |   |   |   PAR_MFCC13 > 0.046088
|   |   |   |   |   |   |   |   |   PAR_ASEV2 <= 0.001178
|   |   |   |   |   |   |   |   |   |   PAR_ASE17 <= -0.15643
|   |   |   |   |   |   |   |   |   |   |   PAR_ASE15 <= -0.14076: Metal (9.0/1.0)
|   |   |   |   |   |   |   |   |   |   |   PAR_ASE15 > -0.14076: Rock (9.0)
|   |   |   |   |   |   |   |   |   |   PAR_ASE17 > -0.15643
|   |   |   |   |   |   |   |   |   |   |   PAR_SFM22 <= 0.057718
|   |   |   |   |   |   |   |   |   |   |   |   PAR_MFCC12 <= 0.077718
|   |   |   |   |   |   |   |   |   |   |   |   |   PAR_ASEV24 <= 0.000181
|   |   |   |   |   |   |   |   |   |   |   |   |   |   PAR_ASC_V <= 0.7542
|   |   |   |   |   |   |   |   |   |   |   |   |   |   |   PAR_PEAK_RMS_TOT <= 2.8008: Metal (4.0/1.0)
|   |   |   |   |   |   |   |   |   |   |   |   |   |   |   PAR_PEAK_RMS_TOT > 2.8008: Rock (86.0/1.0)
|   |   |   |   |   |   |   |   |   |   |   |   |   |   PAR_ASC_V > 0.7542: Metal (3.0)
|   |   |   |   |   |   |   |   |   |   |   |   |   PAR_ASEV24 > 0.000181: Metal (3.0/1.0)
|   |   |   |   |   |   |   |   |   |   |   |   PAR_MFCC12 > 0.077718: Metal (4.0)
|   |   |   |   |   |   |   |   |   |   |   PAR_SFM22 > 0.057718: Rock (130.0)
|   |   |   |   |   |   |   |   |   PAR_ASEV2 > 0.001178
|   |   |   |   |   |   |   |   |   |   PAR_ASE15 <= -0.14501: Metal (14.0)
|   |   |   |   |   |   |   |   |   |   PAR_ASE15 > -0.14501
|   |   |   |   |   |   |   |   |   |   |   PAR_ASEV24 <= 0.000123
|   |   |   |   |   |   |   |   |   |   |   |   PAR_ASE14 <= -0.14862: Rock (2.0)
|   |   |   |   |   |   |   |   |   |   |   |   PAR_ASE14 > -0.14862: Metal (3.0)
|   |   |   |   |   |   |   |   |   |   |   PAR_ASEV24 > 0.000123: Rock (12.0)
|   |   |   |   PAR_MFCC1 > 0.58313
|   |   |   |   |   PAR_ASE32 <= -0.25074
|   |   |   |   |   |   PAR_SFM2 <= 0.005657: Blues (26.0)
|   |   |   |   |   |   PAR_SFM2 > 0.005657: Metal (3.0/1.0)
|   |   |   |   |   PAR_ASE32 > -0.25074
|   |   |   |   |   |   PAR_ASEV16 <= 0.000577
|   |   |   |   |   |   |   PAR_SFM_MV <= 0.000535: Rock (6.0)
|   |   |   |   |   |   |   PAR_SFM_MV > 0.000535: Metal (7.0/1.0)
|   |   |   |   |   |   PAR_ASEV16 > 0.000577: Pop (3.0)
|   |   PAR_ASEV3 > 0.00141
|   |   |   PAR_ASEV26 <= 0.000122: Metal (4.0)
|   |   |   PAR_ASEV26 > 0.000122
|   |   |   |   PAR_SFM10 <= 0.073253
|   |   |   |   |   PAR_SFM24 <= 0.056434: Pop (100.0)
|   |   |   |   |   PAR_SFM24 > 0.056434
|   |   |   |   |   |   PAR_SFMV8 <= 0.000171: Rock (4.0)
|   |   |   |   |   |   PAR_SFMV8 > 0.000171
|   |   |   |   |   |   |   PAR_SFMV24 <= 0.000382
|   |   |   |   |   |   |   |   PAR_MFCC12 <= 0.12058: Pop (18.0/1.0)
|   |   |   |   |   |   |   |   PAR_MFCC12 > 0.12058: Rock (2.0)
|   |   |   |   |   |   |   PAR_SFMV24 > 0.000382: Rock (3.0)
|   |   |   |   PAR_SFM10 > 0.073253: Rock (4.0/1.0)
PAR_SFM24 > 0.077309
|   PAR_ASE32 <= -0.27841
|   |   PAR_MFCC1 <= 0.77672
|   |   |   PAR_ASE2 <= -0.12519
|   |   |   |   PAR_ASEV24 <= 0.000107
|   |   |   |   |   PAR_PEAK_RMS10FR_MEAN <= 4.7688: Rock (7.0)
|   |   |   |   |   PAR_PEAK_RMS10FR_MEAN > 4.7688: Metal (2.0)
|   |   |   |   PAR_ASEV24 > 0.000107
|   |   |   |   |   PAR_SFMV14 <= 0.000259
|   |   |   |   |   |   PAR_SFMV22 <= 0.000671: Blues (6.0)
|   |   |   |   |   |   PAR_SFMV22 > 0.000671: Metal (5.0/1.0)
|   |   |   |   |   PAR_SFMV14 > 0.000259
|   |   |   |   |   |   PAR_ASEV3 <= 0.001081: Blues (500.0/1.0)
|   |   |   |   |   |   PAR_ASEV3 > 0.001081
|   |   |   |   |   |   |   PAR_ASEV8 <= 0.000451: Metal (2.0)
|   |   |   |   |   |   |   PAR_ASEV8 > 0.000451: Blues (7.0)
|   |   |   PAR_ASE2 > -0.12519
|   |   |   |   PAR_SFMV24 <= 0.000073: Rock (16.0/1.0)
|   |   |   |   PAR_SFMV24 > 0.000073
|   |   |   |   |   PAR_ASE13 <= -0.13159: Metal (11.0)
|   |   |   |   |   PAR_ASE13 > -0.13159: Rock (3.0)
|   |   PAR_MFCC1 > 0.77672
|   |   |   PAR_ASE_MV <= 0.000177: Rock (3.0/1.0)
|   |   |   PAR_ASE_MV > 0.000177
|   |   |   |   PAR_SFMV24 <= 0.000012
|   |   |   |   |   PAR_ASE32 <= -0.29355: Blues (4.0)
|   |   |   |   |   PAR_ASE32 > -0.29355
|   |   |   |   |   |   PAR_MFCC7 <= 0.29566
|   |   |   |   |   |   |   PAR_SFM9 <= 0.056687
|   |   |   |   |   |   |   |   PAR_SFM24 <= 0.082742: Classical (60.0)
|   |   |   |   |   |   |   |   PAR_SFM24 > 0.082742
|   |   |   |   |   |   |   |   |   PAR_MFCC20 <= -0.019388
|   |   |   |   |   |   |   |   |   |   PAR_MFCC7 <= 0.067583
|   |   |   |   |   |   |   |   |   |   |   PAR_PEAK_RMS10FR_VAR <= 0.29991: Jazz (4.0/1.0)
|   |   |   |   |   |   |   |   |   |   |   PAR_PEAK_RMS10FR_VAR > 0.29991: Classical (35.0)
|   |   |   |   |   |   |   |   |   |   PAR_MFCC7 > 0.067583: Jazz (4.0/1.0)
|   |   |   |   |   |   |   |   |   PAR_MFCC20 > -0.019388: Jazz (3.0)
|   |   |   |   |   |   |   PAR_SFM9 > 0.056687
|   |   |   |   |   |   |   |   PAR_ASS <= 1.0783: Jazz (9.0)
|   |   |   |   |   |   |   |   PAR_ASS > 1.0783
|   |   |   |   |   |   |   |   |   PAR_SFMV8 <= 0.000203: Classical (7.0)
|   |   |   |   |   |   |   |   |   PAR_SFMV8 > 0.000203: Jazz (2.0/1.0)
|   |   |   |   |   |   PAR_MFCC7 > 0.29566: Blues (4.0/1.0)
|   |   |   |   PAR_SFMV24 > 0.000012: Blues (15.0)
|   PAR_ASE32 > -0.27841
|   |   PAR_ASS <= 1.3643
|   |   |   PAR_ASE3 <= -0.13226
|   |   |   |   PAR_SFM22 <= 0.094012
|   |   |   |   |   PAR_SFMV18 <= 0.000181
|   |   |   |   |   |   PAR_PEAK_RMS_TOT <= 6.2695
|   |   |   |   |   |   |   PAR_ASEV1 <= 0.000338
|   |   |   |   |   |   |   |   PAR_ASEV1 <= 0.000199: Metal (3.0)
|   |   |   |   |   |   |   |   PAR_ASEV1 > 0.000199: Classical (3.0)
|   |   |   |   |   |   |   PAR_ASEV1 > 0.000338: Rock (10.0)
|   |   |   |   |   |   PAR_PEAK_RMS_TOT > 6.2695: Jazz (16.0)
|   |   |   |   |   PAR_SFMV18 > 0.000181
|   |   |   |   |   |   PAR_SFM24 <= 0.08099
|   |   |   |   |   |   |   PAR_ASE32 <= -0.24718: Blues (11.0/1.0)
|   |   |   |   |   |   |   PAR_ASE32 > -0.24718
|   |   |   |   |   |   |   |   PAR_ASE32 <= -0.23444: Classical (5.0)
|   |   |   |   |   |   |   |   PAR_ASE32 > -0.23444
|   |   |   |   |   |   |   |   |   PAR_ASE14 <= -0.14814: Classical (2.0)
|   |   |   |   |   |   |   |   |   PAR_ASE14 > -0.14814: Jazz (20.0)
|   |   |   |   |   |   PAR_SFM24 > 0.08099
|   |   |   |   |   |   |   PAR_ASEV2 <= 0.001126
|   |   |   |   |   |   |   |   PAR_SFM9 <= 0.069338
|   |   |   |   |   |   |   |   |   PAR_THR_1RMS_TOT <= 0.14859
|   |   |   |   |   |   |   |   |   |   PAR_THR_2RMS_TOT <= 0.018512: Jazz (30.0/1.0)
|   |   |   |   |   |   |   |   |   |   PAR_THR_2RMS_TOT > 0.018512
|   |   |   |   |   |   |   |   |   |   |   PAR_MFCC1 <= -0.044464
|   |   |   |   |   |   |   |   |   |   |   |   PAR_ASE32 <= -0.24043: Blues (9.0)
|   |   |   |   |   |   |   |   |   |   |   |   PAR_ASE32 > -0.24043
|   |   |   |   |   |   |   |   |   |   |   |   |   PAR_SFMV14 <= 0.000473
|   |   |   |   |   |   |   |   |   |   |   |   |   |   PAR_MFCC20 <= 0.034042: Classical (33.0)
|   |   |   |   |   |   |   |   |   |   |   |   |   |   PAR_MFCC20 > 0.034042: Jazz (3.0)
|   |   |   |   |   |   |   |   |   |   |   |   |   PAR_SFMV14 > 0.000473: Jazz (16.0/1.0)
|   |   |   |   |   |   |   |   |   |   |   PAR_MFCC1 > -0.044464
|   |   |   |   |   |   |   |   |   |   |   |   PAR_SFMV17 <= 0.000357
|   |   |   |   |   |   |   |   |   |   |   |   |   PAR_PEAK_RMS10FR_VAR <= 7.4179: Jazz (15.0)
|   |   |   |   |   |   |   |   |   |   |   |   |   PAR_PEAK_RMS10FR_VAR > 7.4179
|   |   |   |   |   |   |   |   |   |   |   |   |   |   PAR_SFMV22 <= 0.001007: Classical (11.0)
|   |   |   |   |   |   |   |   |   |   |   |   |   |   PAR_SFMV22 > 0.001007: Jazz (4.0/1.0)
|   |   |   |   |   |   |   |   |   |   |   |   PAR_SFMV17 > 0.000357
|   |   |   |   |   |   |   |   |   |   |   |   |   PAR_ASEV26 <= 0.000685
|   |   |   |   |   |   |   |   |   |   |   |   |   |   PAR_SFMV22 <= 0.001449
|   |   |   |   |   |   |   |   |   |   |   |   |   |   |   PAR_SFM2 <= 0.005912
|   |   |   |   |   |   |   |   |   |   |   |   |   |   |   |   PAR_THR_2RMS_TOT <= 0.038417
|   |   |   |   |   |   |   |   |   |   |   |   |   |   |   |   |   PAR_ASE15 <= -0.13784
|   |   |   |   |   |   |   |   |   |   |   |   |   |   |   |   |   |   PAR_SFMV22 <= 0.000954
|   |   |   |   |   |   |   |   |   |   |   |   |   |   |   |   |   |   |   PAR_ASE32 <= -0.26566: Jazz (7.0)
|   |   |   |   |   |   |   |   |   |   |   |   |   |   |   |   |   |   |   PAR_ASE32 > -0.26566
|   |   |   |   |   |   |   |   |   |   |   |   |   |   |   |   |   |   |   |   PAR_SFM2 <= 0.005786
|   |   |   |   |   |   |   |   |   |   |   |   |   |   |   |   |   |   |   |   |   PAR_ASEV16 <= 0.000498
|   |   |   |   |   |   |   |   |   |   |   |   |   |   |   |   |   |   |   |   |   |   PAR_ASE22 <= -0.1711
|   |   |   |   |   |   |   |   |   |   |   |   |   |   |   |   |   |   |   |   |   |   |   PAR_ASE33 <= -0.27408: Jazz (5.0)
|   |   |   |   |   |   |   |   |   |   |   |   |   |   |   |   |   |   |   |   |   |   |   PAR_ASE33 > -0.27408: Classical (8.0)
|   |   |   |   |   |   |   |   |   |   |   |   |   |   |   |   |   |   |   |   |   |   PAR_ASE22 > -0.1711
|   |   |   |   |   |   |   |   |   |   |   |   |   |   |   |   |   |   |   |   |   |   |   PAR_SFMV13 <= 0.000531
|   |   |   |   |   |   |   |   |   |   |   |   |   |   |   |   |   |   |   |   |   |   |   |   PAR_ASEV8 <= 0.000252: Jazz (3.0)
|   |   |   |   |   |   |   |   |   |   |   |   |   |   |   |   |   |   |   |   |   |   |   |   PAR_ASEV8 > 0.000252: Classical (5.0)
|   |   |   |   |   |   |   |   |   |   |   |   |   |   |   |   |   |   |   |   |   |   |   PAR_SFMV13 > 0.000531
|   |   |   |   |   |   |   |   |   |   |   |   |   |   |   |   |   |   |   |   |   |   |   |   PAR_ASE17 <= -0.11964: Classical (107.0)
|   |   |   |   |   |   |   |   |   |   |   |   |   |   |   |   |   |   |   |   |   |   |   |   PAR_ASE17 > -0.11964
|   |   |   |   |   |   |   |   |   |   |   |   |   |   |   |   |   |   |   |   |   |   |   |   |   PAR_ASE23 <= -0.15283: Jazz (2.0)
|   |   |   |   |   |   |   |   |   |   |   |   |   |   |   |   |   |   |   |   |   |   |   |   |   PAR_ASE23 > -0.15283: Classical (5.0)
|   |   |   |   |   |   |   |   |   |   |   |   |   |   |   |   |   |   |   |   |   PAR_ASEV16 > 0.000498
|   |   |   |   |   |   |   |   |   |   |   |   |   |   |   |   |   |   |   |   |   |   PAR_SFM22 <= 0.081513: Classical (17.0/1.0)
|   |   |   |   |   |   |   |   |   |   |   |   |   |   |   |   |   |   |   |   |   |   PAR_SFM22 > 0.081513
|   |   |   |   |   |   |   |   |   |   |   |   |   |   |   |   |   |   |   |   |   |   |   PAR_PEAK_RMS10FR_MEAN <= 11.84: Jazz (12.0)
|   |   |   |   |   |   |   |   |   |   |   |   |   |   |   |   |   |   |   |   |   |   |   PAR_PEAK_RMS10FR_MEAN > 11.84
|   |   |   |   |   |   |   |   |   |   |   |   |   |   |   |   |   |   |   |   |   |   |   |   PAR_ASEV8 <= 0.000569: Classical (7.0/1.0)
|   |   |   |   |   |   |   |   |   |   |   |   |   |   |   |   |   |   |   |   |   |   |   |   PAR_ASEV8 > 0.000569: Jazz (2.0)
|   |   |   |   |   |   |   |   |   |   |   |   |   |   |   |   |   |   |   |   PAR_SFM2 > 0.005786: Jazz (4.0)
|   |   |   |   |   |   |   |   |   |   |   |   |   |   |   |   |   |   PAR_SFMV22 > 0.000954
|   |   |   |   |   |   |   |   |   |   |   |   |   |   |   |   |   |   |   PAR_MFCC7 <= 0.17624
|   |   |   |   |   |   |   |   |   |   |   |   |   |   |   |   |   |   |   |   PAR_SFM9 <= 0.030507: Classical (8.0/1.0)
|   |   |   |   |   |   |   |   |   |   |   |   |   |   |   |   |   |   |   |   PAR_SFM9 > 0.030507
|   |   |   |   |   |   |   |   |   |   |   |   |   |   |   |   |   |   |   |   |   PAR_SFMV22 <= 0.000994
|   |   |   |   |   |   |   |   |   |   |   |   |   |   |   |   |   |   |   |   |   |   PAR_ASEV8 <= 0.000364: Jazz (3.0)
|   |   |   |   |   |   |   |   |   |   |   |   |   |   |   |   |   |   |   |   |   |   PAR_ASEV8 > 0.000364: Classical (4.0/1.0)
|   |   |   |   |   |   |   |   |   |   |   |   |   |   |   |   |   |   |   |   |   PAR_SFMV22 > 0.000994
|   |   |   |   |   |   |   |   |   |   |   |   |   |   |   |   |   |   |   |   |   |   PAR_PEAK_RMS_TOT <= 9.0068: Jazz (35.0)
|   |   |   |   |   |   |   |   |   |   |   |   |   |   |   |   |   |   |   |   |   |   PAR_PEAK_RMS_TOT > 9.0068
|   |   |   |   |   |   |   |   |   |   |   |   |   |   |   |   |   |   |   |   |   |   |   PAR_ASE13 <= -0.12366: Jazz (3.0)
|   |   |   |   |   |   |   |   |   |   |   |   |   |   |   |   |   |   |   |   |   |   |   PAR_ASE13 > -0.12366: Classical (2.0)
|   |   |   |   |   |   |   |   |   |   |   |   |   |   |   |   |   |   |   PAR_MFCC7 > 0.17624: Classical (8.0)
|   |   |   |   |   |   |   |   |   |   |   |   |   |   |   |   |   PAR_ASE15 > -0.13784
|   |   |   |   |   |   |   |   |   |   |   |   |   |   |   |   |   |   PAR_SFMV22 <= 0.001337
|   |   |   |   |   |   |   |   |   |   |   |   |   |   |   |   |   |   |   PAR_ASEV2 <= 0.000912
|   |   |   |   |   |   |   |   |   |   |   |   |   |   |   |   |   |   |   |   PAR_SFMV13 <= 0.001455
|   |   |   |   |   |   |   |   |   |   |   |   |   |   |   |   |   |   |   |   |   PAR_ASEV24 <= 0.000629
|   |   |   |   |   |   |   |   |   |   |   |   |   |   |   |   |   |   |   |   |   |   PAR_SFM10 <= 0.054956
|   |   |   |   |   |   |   |   |   |   |   |   |   |   |   |   |   |   |   |   |   |   |   PAR_ASE13 <= -0.14453
|   |   |   |   |   |   |   |   |   |   |   |   |   |   |   |   |   |   |   |   |   |   |   |   PAR_ASEV3 <= 0.000612
|   |   |   |   |   |   |   |   |   |   |   |   |   |   |   |   |   |   |   |   |   |   |   |   |   PAR_SFMV14 <= 0.000712
|   |   |   |   |   |   |   |   |   |   |   |   |   |   |   |   |   |   |   |   |   |   |   |   |   |   PAR_SFM10 <= 0.043913
|   |   |   |   |   |   |   |   |   |   |   |   |   |   |   |   |   |   |   |   |   |   |   |   |   |   |   PAR_ASE17 <= -0.11422: Classical (32.0)
|   |   |   |   |   |   |   |   |   |   |   |   |   |   |   |   |   |   |   |   |   |   |   |   |   |   |   PAR_ASE17 > -0.11422
|   |   |   |   |   |   |   |   |   |   |   |   |   |   |   |   |   |   |   |   |   |   |   |   |   |   |   |   PAR_SFMV23 <= 0.000748: Classical (6.0)
|   |   |   |   |   |   |   |   |   |   |   |   |   |   |   |   |   |   |   |   |   |   |   |   |   |   |   |   PAR_SFMV23 > 0.000748: Jazz (3.0)
|   |   |   |   |   |   |   |   |   |   |   |   |   |   |   |   |   |   |   |   |   |   |   |   |   |   PAR_SFM10 > 0.043913: Jazz (4.0/1.0)
|   |   |   |   |   |   |   |   |   |   |   |   |   |   |   |   |   |   |   |   |   |   |   |   |   PAR_SFMV14 > 0.000712: Jazz (3.0)
|   |   |   |   |   |   |   |   |   |   |   |   |   |   |   |   |   |   |   |   |   |   |   |   PAR_ASEV3 > 0.000612: Jazz (7.0)
|   |   |   |   |   |   |   |   |   |   |   |   |   |   |   |   |   |   |   |   |   |   |   PAR_ASE13 > -0.14453
|   |   |   |   |   |   |   |   |   |   |   |   |   |   |   |   |   |   |   |   |   |   |   |   PAR_ASE15 <= -0.10376
|   |   |   |   |   |   |   |   |   |   |   |   |   |   |   |   |   |   |   |   |   |   |   |   |   PAR_PEAK_RMS10FR_MEAN <= 5.1935
|   |   |   |   |   |   |   |   |   |   |   |   |   |   |   |   |   |   |   |   |   |   |   |   |   |   PAR_ASE14 <= -0.13687: Jazz (3.0/1.0)
|   |   |   |   |   |   |   |   |   |   |   |   |   |   |   |   |   |   |   |   |   |   |   |   |   |   PAR_ASE14 > -0.13687
|   |   |   |   |   |   |   |   |   |   |   |   |   |   |   |   |   |   |   |   |   |   |   |   |   |   |   PAR_SFM_MV <= 0.0008
|   |   |   |   |   |   |   |   |   |   |   |   |   |   |   |   |   |   |   |   |   |   |   |   |   |   |   |   PAR_SFM24 <= 0.082358: Jazz (2.0)
|   |   |   |   |   |   |   |   |   |   |   |   |   |   |   |   |   |   |   |   |   |   |   |   |   |   |   |   PAR_SFM24 > 0.082358
|   |   |   |   |   |   |   |   |   |   |   |   |   |   |   |   |   |   |   |   |   |   |   |   |   |   |   |   |   PAR_ASEV3 <= 0.000191: Jazz (2.0)
|   |   |   |   |   |   |   |   |   |   |   |   |   |   |   |   |   |   |   |   |   |   |   |   |   |   |   |   |   PAR_ASEV3 > 0.000191
|   |   |   |   |   |   |   |   |   |   |   |   |   |   |   |   |   |   |   |   |   |   |   |   |   |   |   |   |   |   PAR_ASEV8 <= 0.001568
|   |   |   |   |   |   |   |   |   |   |   |   |   |   |   |   |   |   |   |   |   |   |   |   |   |   |   |   |   |   |   PAR_ASE3 <= -0.15901: Classical (45.0)
|   |   |   |   |   |   |   |   |   |   |   |   |   |   |   |   |   |   |   |   |   |   |   |   |   |   |   |   |   |   |   PAR_ASE3 > -0.15901
|   |   |   |   |   |   |   |   |   |   |   |   |   |   |   |   |   |   |   |   |   |   |   |   |   |   |   |   |   |   |   |   PAR_SFM8 <= 0.022465: Jazz (4.0)
|   |   |   |   |   |   |   |   |   |   |   |   |   |   |   |   |   |   |   |   |   |   |   |   |   |   |   |   |   |   |   |   PAR_SFM8 > 0.022465
|   |   |   |   |   |   |   |   |   |   |   |   |   |   |   |   |   |   |   |   |   |   |   |   |   |   |   |   |   |   |   |   |   PAR_ASEV8 <= 0.000232: Jazz (2.0)
|   |   |   |   |   |   |   |   |   |   |   |   |   |   |   |   |   |   |   |   |   |   |   |   |   |   |   |   |   |   |   |   |   PAR_ASEV8 > 0.000232: Classical (15.0)
|   |   |   |   |   |   |   |   |   |   |   |   |   |   |   |   |   |   |   |   |   |   |   |   |   |   |   |   |   |   PAR_ASEV8 > 0.001568: Jazz (2.0)
|   |   |   |   |   |   |   |   |   |   |   |   |   |   |   |   |   |   |   |   |   |   |   |   |   |   |   PAR_SFM_MV > 0.0008: Jazz (3.0)
|   |   |   |   |   |   |   |   |   |   |   |   |   |   |   |   |   |   |   |   |   |   |   |   |   PAR_PEAK_RMS10FR_MEAN > 5.1935
|   |   |   |   |   |   |   |   |   |   |   |   |   |   |   |   |   |   |   |   |   |   |   |   |   |   PAR_SFM15 <= 0.01938
|   |   |   |   |   |   |   |   |   |   |   |   |   |   |   |   |   |   |   |   |   |   |   |   |   |   |   PAR_ASEV26 <= 0.000408: Classical (20.0)
|   |   |   |   |   |   |   |   |   |   |   |   |   |   |   |   |   |   |   |   |   |   |   |   |   |   |   PAR_ASEV26 > 0.000408
|   |   |   |   |   |   |   |   |   |   |   |   |   |   |   |   |   |   |   |   |   |   |   |   |   |   |   |   PAR_ASE2 <= -0.1608: Jazz (11.0)
|   |   |   |   |   |   |   |   |   |   |   |   |   |   |   |   |   |   |   |   |   |   |   |   |   |   |   |   PAR_ASE2 > -0.1608: Classical (5.0)
|   |   |   |   |   |   |   |   |   |   |   |   |   |   |   |   |   |   |   |   |   |   |   |   |   |   PAR_SFM15 > 0.01938
|   |   |   |   |   |   |   |   |   |   |   |   |   |   |   |   |   |   |   |   |   |   |   |   |   |   |   PAR_ASEV1 <= 0.000643
|   |   |   |   |   |   |   |   |   |   |   |   |   |   |   |   |   |   |   |   |   |   |   |   |   |   |   |   PAR_ASEV24 <= 0.00054
|   |   |   |   |   |   |   |   |   |   |   |   |   |   |   |   |   |   |   |   |   |   |   |   |   |   |   |   |   PAR_SFMV17 <= 0.001522
|   |   |   |   |   |   |   |   |   |   |   |   |   |   |   |   |   |   |   |   |   |   |   |   |   |   |   |   |   |   PAR_THR_1RMS_TOT <= 0.1371
|   |   |   |   |   |   |   |   |   |   |   |   |   |   |   |   |   |   |   |   |   |   |   |   |   |   |   |   |   |   |   PAR_SC_V <= 232230
|   |   |   |   |   |   |   |   |   |   |   |   |   |   |   |   |   |   |   |   |   |   |   |   |   |   |   |   |   |   |   |   PAR_SFM2 <= 0.003534
|   |   |   |   |   |   |   |   |   |   |   |   |   |   |   |   |   |   |   |   |   |   |   |   |   |   |   |   |   |   |   |   |   PAR_ASEV3 <= 0.000627
|   |   |   |   |   |   |   |   |   |   |   |   |   |   |   |   |   |   |   |   |   |   |   |   |   |   |   |   |   |   |   |   |   |   PAR_SFMV22 <= 0.001141
|   |   |   |   |   |   |   |   |   |   |   |   |   |   |   |   |   |   |   |   |   |   |   |   |   |   |   |   |   |   |   |   |   |   |   PAR_MFCC13 <= -0.1805
|   |   |   |   |   |   |   |   |   |   |   |   |   |   |   |   |   |   |   |   |   |   |   |   |   |   |   |   |   |   |   |   |   |   |   |   PAR_SC_V <= 46686: Jazz (2.0)
|   |   |   |   |   |   |   |   |   |   |   |   |   |   |   |   |   |   |   |   |   |   |   |   |   |   |   |   |   |   |   |   |   |   |   |   PAR_SC_V > 46686: Classical (2.0)
|   |   |   |   |   |   |   |   |   |   |   |   |   |   |   |   |   |   |   |   |   |   |   |   |   |   |   |   |   |   |   |   |   |   |   PAR_MFCC13 > -0.1805: Classical (59.0)
|   |   |   |   |   |   |   |   |   |   |   |   |   |   |   |   |   |   |   |   |   |   |   |   |   |   |   |   |   |   |   |   |   |   PAR_SFMV22 > 0.001141: Jazz (4.0/1.0)
|   |   |   |   |   |   |   |   |   |   |   |   |   |   |   |   |   |   |   |   |   |   |   |   |   |   |   |   |   |   |   |   |   PAR_ASEV3 > 0.000627: Jazz (3.0)
|   |   |   |   |   |   |   |   |   |   |   |   |   |   |   |   |   |   |   |   |   |   |   |   |   |   |   |   |   |   |   |   PAR_SFM2 > 0.003534: Classical (1419.0/37.0)
|   |   |   |   |   |   |   |   |   |   |   |   |   |   |   |   |   |   |   |   |   |   |   |   |   |   |   |   |   |   |   PAR_SC_V > 232230
|   |   |   |   |   |   |   |   |   |   |   |   |   |   |   |   |   |   |   |   |   |   |   |   |   |   |   |   |   |   |   |   PAR_ASC_V <= 0.57908
|   |   |   |   |   |   |   |   |   |   |   |   |   |   |   |   |   |   |   |   |   |   |   |   |   |   |   |   |   |   |   |   |   PAR_ASEV33 <= 0.000358
|   |   |   |   |   |   |   |   |   |   |   |   |   |   |   |   |   |   |   |   |   |   |   |   |   |   |   |   |   |   |   |   |   |   PAR_ASEV16 <= 0.000332: Jazz (2.0)
|   |   |   |   |   |   |   |   |   |   |   |   |   |   |   |   |   |   |   |   |   |   |   |   |   |   |   |   |   |   |   |   |   |   PAR_ASEV16 > 0.000332: Classical (6.0)
|   |   |   |   |   |   |   |   |   |   |   |   |   |   |   |   |   |   |   |   |   |   |   |   |   |   |   |   |   |   |   |   |   PAR_ASEV33 > 0.000358: Jazz (5.0)
|   |   |   |   |   |   |   |   |   |   |   |   |   |   |   |   |   |   |   |   |   |   |   |   |   |   |   |   |   |   |   |   PAR_ASC_V > 0.57908: Classical (13.0)
|   |   |   |   |   |   |   |   |   |   |   |   |   |   |   |   |   |   |   |   |   |   |   |   |   |   |   |   |   |   PAR_THR_1RMS_TOT > 0.1371
|   |   |   |   |   |   |   |   |   |   |   |   |   |   |   |   |   |   |   |   |   |   |   |   |   |   |   |   |   |   |   PAR_ASE22 <= -0.16394
|   |   |   |   |   |   |   |   |   |   |   |   |   |   |   |   |   |   |   |   |   |   |   |   |   |   |   |   |   |   |   |   PAR_SFMV18 <= 0.000548: Jazz (7.0)
|   |   |   |   |   |   |   |   |   |   |   |   |   |   |   |   |   |   |   |   |   |   |   |   |   |   |   |   |   |   |   |   PAR_SFMV18 > 0.000548
|   |   |   |   |   |   |   |   |   |   |   |   |   |   |   |   |   |   |   |   |   |   |   |   |   |   |   |   |   |   |   |   |   PAR_ASEV33 <= 0.000457: Classical (11.0/1.0)
|   |   |   |   |   |   |   |   |   |   |   |   |   |   |   |   |   |   |   |   |   |   |   |   |   |   |   |   |   |   |   |   |   PAR_ASEV33 > 0.000457: Jazz (2.0)
|   |   |   |   |   |   |   |   |   |   |   |   |   |   |   |   |   |   |   |   |   |   |   |   |   |   |   |   |   |   |   PAR_ASE22 > -0.16394
|   |   |   |   |   |   |   |   |   |   |   |   |   |   |   |   |   |   |   |   |   |   |   |   |   |   |   |   |   |   |   |   PAR_THR_2RMS_TOT <= 0.031143
|   |   |   |   |   |   |   |   |   |   |   |   |   |   |   |   |   |   |   |   |   |   |   |   |   |   |   |   |   |   |   |   |   PAR_SFMV17 <= 0.001263
|   |   |   |   |   |   |   |   |   |   |   |   |   |   |   |   |   |   |   |   |   |   |   |   |   |   |   |   |   |   |   |   |   |   PAR_SFMV13 <= 0.001152
|   |   |   |   |   |   |   |   |   |   |   |   |   |   |   |   |   |   |   |   |   |   |   |   |   |   |   |   |   |   |   |   |   |   |   PAR_SFMV22 <= 0.00112
|   |   |   |   |   |   |   |   |   |   |   |   |   |   |   |   |   |   |   |   |   |   |   |   |   |   |   |   |   |   |   |   |   |   |   |   PAR_ASEV24 <= 0.000416
|   |   |   |   |   |   |   |   |   |   |   |   |   |   |   |   |   |   |   |   |   |   |   |   |   |   |   |   |   |   |   |   |   |   |   |   |   PAR_PEAK_RMS10FR_VAR <= 3.0362: Classical (203.0/1.0)
|   |   |   |   |   |   |   |   |   |   |   |   |   |   |   |   |   |   |   |   |   |   |   |   |   |   |   |   |   |   |   |   |   |   |   |   |   PAR_PEAK_RMS10FR_VAR > 3.0362
|   |   |   |   |   |   |   |   |   |   |   |   |   |   |   |   |   |   |   |   |   |   |   |   |   |   |   |   |   |   |   |   |   |   |   |   |   |   PAR_ASE32 <= -0.21884
|   |   |   |   |   |   |   |   |   |   |   |   |   |   |   |   |   |   |   |   |   |   |   |   |   |   |   |   |   |   |   |   |   |   |   |   |   |   |   PAR_ASE32 <= -0.25119
|   |   |   |   |   |   |   |   |   |   |   |   |   |   |   |   |   |   |   |   |   |   |   |   |   |   |   |   |   |   |   |   |   |   |   |   |   |   |   |   PAR_ASEV24 <= 0.000184: Classical (17.0)
|   |   |   |   |   |   |   |   |   |   |   |   |   |   |   |   |   |   |   |   |   |   |   |   |   |   |   |   |   |   |   |   |   |   |   |   |   |   |   |   PAR_ASEV24 > 0.000184
|   |   |   |   |   |   |   |   |   |   |   |   |   |   |   |   |   |   |   |   |   |   |   |   |   |   |   |   |   |   |   |   |   |   |   |   |   |   |   |   |   PAR_SFM22 <= 0.088464
|   |   |   |   |   |   |   |   |   |   |   |   |   |   |   |   |   |   |   |   |   |   |   |   |   |   |   |   |   |   |   |   |   |   |   |   |   |   |   |   |   |   PAR_ASE33 <= -0.31582: Jazz (2.0)
|   |   |   |   |   |   |   |   |   |   |   |   |   |   |   |   |   |   |   |   |   |   |   |   |   |   |   |   |   |   |   |   |   |   |   |   |   |   |   |   |   |   PAR_ASE33 > -0.31582: Classical (22.0/1.0)
|   |   |   |   |   |   |   |   |   |   |   |   |   |   |   |   |   |   |   |   |   |   |   |   |   |   |   |   |   |   |   |   |   |   |   |   |   |   |   |   |   PAR_SFM22 > 0.088464: Jazz (3.0)
|   |   |   |   |   |   |   |   |   |   |   |   |   |   |   |   |   |   |   |   |   |   |   |   |   |   |   |   |   |   |   |   |   |   |   |   |   |   |   PAR_ASE32 > -0.25119: Classical (66.0)
|   |   |   |   |   |   |   |   |   |   |   |   |   |   |   |   |   |   |   |   |   |   |   |   |   |   |   |   |   |   |   |   |   |   |   |   |   |   PAR_ASE32 > -0.21884: Jazz (2.0)
|   |   |   |   |   |   |   |   |   |   |   |   |   |   |   |   |   |   |   |   |   |   |   |   |   |   |   |   |   |   |   |   |   |   |   |   PAR_ASEV24 > 0.000416
|   |   |   |   |   |   |   |   |   |   |   |   |   |   |   |   |   |   |   |   |   |   |   |   |   |   |   |   |   |   |   |   |   |   |   |   |   PAR_ASEV8 <= 0.000253: Jazz (2.0)
|   |   |   |   |   |   |   |   |   |   |   |   |   |   |   |   |   |   |   |   |   |   |   |   |   |   |   |   |   |   |   |   |   |   |   |   |   PAR_ASEV8 > 0.000253: Classical (11.0)
|   |   |   |   |   |   |   |   |   |   |   |   |   |   |   |   |   |   |   |   |   |   |   |   |   |   |   |   |   |   |   |   |   |   |   PAR_SFMV22 > 0.00112
|   |   |   |   |   |   |   |   |   |   |   |   |   |   |   |   |   |   |   |   |   |   |   |   |   |   |   |   |   |   |   |   |   |   |   |   PAR_SFM_MV <= 0.000705: Classical (7.0)
|   |   |   |   |   |   |   |   |   |   |   |   |   |   |   |   |   |   |   |   |   |   |   |   |   |   |   |   |   |   |   |   |   |   |   |   PAR_SFM_MV > 0.000705: Jazz (4.0/1.0)
|   |   |   |   |   |   |   |   |   |   |   |   |   |   |   |   |   |   |   |   |   |   |   |   |   |   |   |   |   |   |   |   |   |   PAR_SFMV13 > 0.001152
|   |   |   |   |   |   |   |   |   |   |   |   |   |   |   |   |   |   |   |   |   |   |   |   |   |   |   |   |   |   |   |   |   |   |   PAR_SFMV14 <= 0.000535: Classical (5.0)
|   |   |   |   |   |   |   |   |   |   |   |   |   |   |   |   |   |   |   |   |   |   |   |   |   |   |   |   |   |   |   |   |   |   |   PAR_SFMV14 > 0.000535
|   |   |   |   |   |   |   |   |   |   |   |   |   |   |   |   |   |   |   |   |   |   |   |   |   |   |   |   |   |   |   |   |   |   |   |   PAR_ASE14 <= -0.12021: Classical (2.0)
|   |   |   |   |   |   |   |   |   |   |   |   |   |   |   |   |   |   |   |   |   |   |   |   |   |   |   |   |   |   |   |   |   |   |   |   PAR_ASE14 > -0.12021: Jazz (3.0)
|   |   |   |   |   |   |   |   |   |   |   |   |   |   |   |   |   |   |   |   |   |   |   |   |   |   |   |   |   |   |   |   |   PAR_SFMV17 > 0.001263
|   |   |   |   |   |   |   |   |   |   |   |   |   |   |   |   |   |   |   |   |   |   |   |   |   |   |   |   |   |   |   |   |   |   PAR_SFM22 <= 0.084231: Classical (16.0/1.0)
|   |   |   |   |   |   |   |   |   |   |   |   |   |   |   |   |   |   |   |   |   |   |   |   |   |   |   |   |   |   |   |   |   |   PAR_SFM22 > 0.084231: Jazz (5.0)
|   |   |   |   |   |   |   |   |   |   |   |   |   |   |   |   |   |   |   |   |   |   |   |   |   |   |   |   |   |   |   |   PAR_THR_2RMS_TOT > 0.031143
|   |   |   |   |   |   |   |   |   |   |   |   |   |   |   |   |   |   |   |   |   |   |   |   |   |   |   |   |   |   |   |   |   PAR_SFMV8 <= 0.000161: Classical (4.0)
|   |   |   |   |   |   |   |   |   |   |   |   |   |   |   |   |   |   |   |   |   |   |   |   |   |   |   |   |   |   |   |   |   PAR_SFMV8 > 0.000161: Jazz (5.0)
|   |   |   |   |   |   |   |   |   |   |   |   |   |   |   |   |   |   |   |   |   |   |   |   |   |   |   |   |   PAR_SFMV17 > 0.001522: Classical (51.0)
|   |   |   |   |   |   |   |   |   |   |   |   |   |   |   |   |   |   |   |   |   |   |   |   |   |   |   |   PAR_ASEV24 > 0.00054
|   |   |   |   |   |   |   |   |   |   |   |   |   |   |   |   |   |   |   |   |   |   |   |   |   |   |   |   |   PAR_ASE3 <= -0.13943
|   |   |   |   |   |   |   |   |   |   |   |   |   |   |   |   |   |   |   |   |   |   |   |   |   |   |   |   |   |   PAR_ASEV3 <= 0.000858
|   |   |   |   |   |   |   |   |   |   |   |   |   |   |   |   |   |   |   |   |   |   |   |   |   |   |   |   |   |   |   PAR_MFCC20 <= -0.13383: Jazz (2.0)
|   |   |   |   |   |   |   |   |   |   |   |   |   |   |   |   |   |   |   |   |   |   |   |   |   |   |   |   |   |   |   PAR_MFCC20 > -0.13383
|   |   |   |   |   |   |   |   |   |   |   |   |   |   |   |   |   |   |   |   |   |   |   |   |   |   |   |   |   |   |   |   PAR_SFM8 <= 0.03135: Classical (33.0)
|   |   |   |   |   |   |   |   |   |   |   |   |   |   |   |   |   |   |   |   |   |   |   |   |   |   |   |   |   |   |   |   PAR_SFM8 > 0.03135
|   |   |   |   |   |   |   |   |   |   |   |   |   |   |   |   |   |   |   |   |   |   |   |   |   |   |   |   |   |   |   |   |   PAR_SFM24 <= 0.08274: Jazz (3.0)
|   |   |   |   |   |   |   |   |   |   |   |   |   |   |   |   |   |   |   |   |   |   |   |   |   |   |   |   |   |   |   |   |   PAR_SFM24 > 0.08274: Classical (2.0)
|   |   |   |   |   |   |   |   |   |   |   |   |   |   |   |   |   |   |   |   |   |   |   |   |   |   |   |   |   |   PAR_ASEV3 > 0.000858: Jazz (2.0)
|   |   |   |   |   |   |   |   |   |   |   |   |   |   |   |   |   |   |   |   |   |   |   |   |   |   |   |   |   PAR_ASE3 > -0.13943: Jazz (3.0)
|   |   |   |   |   |   |   |   |   |   |   |   |   |   |   |   |   |   |   |   |   |   |   |   |   |   |   PAR_ASEV1 > 0.000643
|   |   |   |   |   |   |   |   |   |   |   |   |   |   |   |   |   |   |   |   |   |   |   |   |   |   |   |   PAR_MFCC20 <= -0.1498: Jazz (3.0)
|   |   |   |   |   |   |   |   |   |   |   |   |   |   |   |   |   |   |   |   |   |   |   |   |   |   |   |   PAR_MFCC20 > -0.1498
|   |   |   |   |   |   |   |   |   |   |   |   |   |   |   |   |   |   |   |   |   |   |   |   |   |   |   |   |   PAR_SFMV22 <= 0.001083: Classical (18.0)
|   |   |   |   |   |   |   |   |   |   |   |   |   |   |   |   |   |   |   |   |   |   |   |   |   |   |   |   |   PAR_SFMV22 > 0.001083
|   |   |   |   |   |   |   |   |   |   |   |   |   |   |   |   |   |   |   |   |   |   |   |   |   |   |   |   |   |   PAR_TC <= 2.8618: Jazz (2.0)
|   |   |   |   |   |   |   |   |   |   |   |   |   |   |   |   |   |   |   |   |   |   |   |   |   |   |   |   |   |   PAR_TC > 2.8618: Classical (3.0)
|   |   |   |   |   |   |   |   |   |   |   |   |   |   |   |   |   |   |   |   |   |   |   |   PAR_ASE15 > -0.10376
|   |   |   |   |   |   |   |   |   |   |   |   |   |   |   |   |   |   |   |   |   |   |   |   |   PAR_SFMV18 <= 0.001088
|   |   |   |   |   |   |   |   |   |   |   |   |   |   |   |   |   |   |   |   |   |   |   |   |   |   PAR_ASE17 <= -0.10692
|   |   |   |   |   |   |   |   |   |   |   |   |   |   |   |   |   |   |   |   |   |   |   |   |   |   |   PAR_ASEV2 <= 0.000242: Jazz (3.0)
|   |   |   |   |   |   |   |   |   |   |   |   |   |   |   |   |   |   |   |   |   |   |   |   |   |   |   PAR_ASEV2 > 0.000242
|   |   |   |   |   |   |   |   |   |   |   |   |   |   |   |   |   |   |   |   |   |   |   |   |   |   |   |   PAR_MFCC7 <= 0.024157
|   |   |   |   |   |   |   |   |   |   |   |   |   |   |   |   |   |   |   |   |   |   |   |   |   |   |   |   |   PAR_SFM24 <= 0.082856
|   |   |   |   |   |   |   |   |   |   |   |   |   |   |   |   |   |   |   |   |   |   |   |   |   |   |   |   |   |   PAR_SC_V <= 121730: Classical (74.0)
|   |   |   |   |   |   |   |   |   |   |   |   |   |   |   |   |   |   |   |   |   |   |   |   |   |   |   |   |   |   PAR_SC_V > 121730
|   |   |   |   |   |   |   |   |   |   |   |   |   |   |   |   |   |   |   |   |   |   |   |   |   |   |   |   |   |   |   PAR_ASEV1 <= 0.000382: Jazz (3.0)
|   |   |   |   |   |   |   |   |   |   |   |   |   |   |   |   |   |   |   |   |   |   |   |   |   |   |   |   |   |   |   PAR_ASEV1 > 0.000382: Classical (2.0)
|   |   |   |   |   |   |   |   |   |   |   |   |   |   |   |   |   |   |   |   |   |   |   |   |   |   |   |   |   PAR_SFM24 > 0.082856
|   |   |   |   |   |   |   |   |   |   |   |   |   |   |   |   |   |   |   |   |   |   |   |   |   |   |   |   |   |   PAR_THR_2RMS_TOT <= 0.027728: Jazz (4.0)
|   |   |   |   |   |   |   |   |   |   |   |   |   |   |   |   |   |   |   |   |   |   |   |   |   |   |   |   |   |   PAR_THR_2RMS_TOT > 0.027728: Classical (4.0)
|   |   |   |   |   |   |   |   |   |   |   |   |   |   |   |   |   |   |   |   |   |   |   |   |   |   |   |   PAR_MFCC7 > 0.024157
|   |   |   |   |   |   |   |   |   |   |   |   |   |   |   |   |   |   |   |   |   |   |   |   |   |   |   |   |   PAR_ASEV16 <= 0.000461: Jazz (5.0)
|   |   |   |   |   |   |   |   |   |   |   |   |   |   |   |   |   |   |   |   |   |   |   |   |   |   |   |   |   PAR_ASEV16 > 0.000461: Classical (2.0)
|   |   |   |   |   |   |   |   |   |   |   |   |   |   |   |   |   |   |   |   |   |   |   |   |   |   PAR_ASE17 > -0.10692: Jazz (5.0)
|   |   |   |   |   |   |   |   |   |   |   |   |   |   |   |   |   |   |   |   |   |   |   |   |   PAR_SFMV18 > 0.001088: Jazz (5.0)
|   |   |   |   |   |   |   |   |   |   |   |   |   |   |   |   |   |   |   |   |   |   PAR_SFM10 > 0.054956
|   |   |   |   |   |   |   |   |   |   |   |   |   |   |   |   |   |   |   |   |   |   |   PAR_SFM_MV <= 0.000716
|   |   |   |   |   |   |   |   |   |   |   |   |   |   |   |   |   |   |   |   |   |   |   |   PAR_ASE_MV <= 0.000453
|   |   |   |   |   |   |   |   |   |   |   |   |   |   |   |   |   |   |   |   |   |   |   |   |   PAR_PEAK_RMS10FR_VAR <= 1.2557
|   |   |   |   |   |   |   |   |   |   |   |   |   |   |   |   |   |   |   |   |   |   |   |   |   |   PAR_ASE13 <= -0.114: Jazz (5.0)
|   |   |   |   |   |   |   |   |   |   |   |   |   |   |   |   |   |   |   |   |   |   |   |   |   |   PAR_ASE13 > -0.114: Classical (2.0)
|   |   |   |   |   |   |   |   |   |   |   |   |   |   |   |   |   |   |   |   |   |   |   |   |   PAR_PEAK_RMS10FR_VAR > 1.2557: Classical (41.0)
|   |   |   |   |   |   |   |   |   |   |   |   |   |   |   |   |   |   |   |   |   |   |   |   PAR_ASE_MV > 0.000453: Jazz (2.0/1.0)
|   |   |   |   |   |   |   |   |   |   |   |   |   |   |   |   |   |   |   |   |   |   |   PAR_SFM_MV > 0.000716: Jazz (8.0/1.0)
|   |   |   |   |   |   |   |   |   |   |   |   |   |   |   |   |   |   |   |   |   PAR_ASEV24 > 0.000629
|   |   |   |   |   |   |   |   |   |   |   |   |   |   |   |   |   |   |   |   |   |   PAR_SFMV17 <= 0.000789: Jazz (9.0/1.0)
|   |   |   |   |   |   |   |   |   |   |   |   |   |   |   |   |   |   |   |   |   |   PAR_SFMV17 > 0.000789
|   |   |   |   |   |   |   |   |   |   |   |   |   |   |   |   |   |   |   |   |   |   |   PAR_MFCC12 <= 0.081919
|   |   |   |   |   |   |   |   |   |   |   |   |   |   |   |   |   |   |   |   |   |   |   |   PAR_SFMV14 <= 0.000752: Classical (47.0/1.0)
|   |   |   |   |   |   |   |   |   |   |   |   |   |   |   |   |   |   |   |   |   |   |   |   PAR_SFMV14 > 0.000752
|   |   |   |   |   |   |   |   |   |   |   |   |   |   |   |   |   |   |   |   |   |   |   |   |   PAR_ASEV1 <= 0.000427: Classical (6.0/1.0)
|   |   |   |   |   |   |   |   |   |   |   |   |   |   |   |   |   |   |   |   |   |   |   |   |   PAR_ASEV1 > 0.000427: Jazz (5.0)
|   |   |   |   |   |   |   |   |   |   |   |   |   |   |   |   |   |   |   |   |   |   |   PAR_MFCC12 > 0.081919: Jazz (7.0)
|   |   |   |   |   |   |   |   |   |   |   |   |   |   |   |   |   |   |   |   PAR_SFMV13 > 0.001455
|   |   |   |   |   |   |   |   |   |   |   |   |   |   |   |   |   |   |   |   |   PAR_ASE22 <= -0.15504: Classical (19.0/1.0)
|   |   |   |   |   |   |   |   |   |   |   |   |   |   |   |   |   |   |   |   |   PAR_ASE22 > -0.15504
|   |   |   |   |   |   |   |   |   |   |   |   |   |   |   |   |   |   |   |   |   |   PAR_TC <= 2.4798: Classical (2.0)
|   |   |   |   |   |   |   |   |   |   |   |   |   |   |   |   |   |   |   |   |   |   PAR_TC > 2.4798: Jazz (8.0)
|   |   |   |   |   |   |   |   |   |   |   |   |   |   |   |   |   |   |   PAR_ASEV2 > 0.000912
|   |   |   |   |   |   |   |   |   |   |   |   |   |   |   |   |   |   |   |   PAR_ASEV16 <= 0.000309: Classical (15.0)
|   |   |   |   |   |   |   |   |   |   |   |   |   |   |   |   |   |   |   |   PAR_ASEV16 > 0.000309
|   |   |   |   |   |   |   |   |   |   |   |   |   |   |   |   |   |   |   |   |   PAR_PEAK_RMS10FR_VAR <= 23.561
|   |   |   |   |   |   |   |   |   |   |   |   |   |   |   |   |   |   |   |   |   |   PAR_ASEV1 <= 0.000567: Classical (3.0/1.0)
|   |   |   |   |   |   |   |   |   |   |   |   |   |   |   |   |   |   |   |   |   |   PAR_ASEV1 > 0.000567: Jazz (14.0)
|   |   |   |   |   |   |   |   |   |   |   |   |   |   |   |   |   |   |   |   |   PAR_PEAK_RMS10FR_VAR > 23.561: Classical (7.0)
|   |   |   |   |   |   |   |   |   |   |   |   |   |   |   |   |   |   PAR_SFMV22 > 0.001337
|   |   |   |   |   |   |   |   |   |   |   |   |   |   |   |   |   |   |   PAR_SC_V <= 25232: Jazz (7.0)
|   |   |   |   |   |   |   |   |   |   |   |   |   |   |   |   |   |   |   PAR_SC_V > 25232
|   |   |   |   |   |   |   |   |   |   |   |   |   |   |   |   |   |   |   |   PAR_ASE_MV <= 0.000413: Classical (12.0)
|   |   |   |   |   |   |   |   |   |   |   |   |   |   |   |   |   |   |   |   PAR_ASE_MV > 0.000413
|   |   |   |   |   |   |   |   |   |   |   |   |   |   |   |   |   |   |   |   |   PAR_SFM16 <= 0.029511: Classical (6.0/1.0)
|   |   |   |   |   |   |   |   |   |   |   |   |   |   |   |   |   |   |   |   |   PAR_SFM16 > 0.029511: Jazz (6.0)
|   |   |   |   |   |   |   |   |   |   |   |   |   |   |   |   PAR_THR_2RMS_TOT > 0.038417
|   |   |   |   |   |   |   |   |   |   |   |   |   |   |   |   |   PAR_PEAK_RMS10FR_VAR <= 14.861: Jazz (14.0)
|   |   |   |   |   |   |   |   |   |   |   |   |   |   |   |   |   PAR_PEAK_RMS10FR_VAR > 14.861
|   |   |   |   |   |   |   |   |   |   |   |   |   |   |   |   |   |   PAR_SFMV14 <= 0.000709: Classical (19.0/1.0)
|   |   |   |   |   |   |   |   |   |   |   |   |   |   |   |   |   |   PAR_SFMV14 > 0.000709: Jazz (5.0)
|   |   |   |   |   |   |   |   |   |   |   |   |   |   |   PAR_SFM2 > 0.005912
|   |   |   |   |   |   |   |   |   |   |   |   |   |   |   |   PAR_ASEV3 <= 0.000487
|   |   |   |   |   |   |   |   |   |   |   |   |   |   |   |   |   PAR_SFMV8 <= 0.000236
|   |   |   |   |   |   |   |   |   |   |   |   |   |   |   |   |   |   PAR_ASEV24 <= 0.000463
|   |   |   |   |   |   |   |   |   |   |   |   |   |   |   |   |   |   |   PAR_ASEV2 <= 0.000329: Jazz (4.0/1.0)
|   |   |   |   |   |   |   |   |   |   |   |   |   |   |   |   |   |   |   PAR_ASEV2 > 0.000329: Classical (19.0)
|   |   |   |   |   |   |   |   |   |   |   |   |   |   |   |   |   |   PAR_ASEV24 > 0.000463: Jazz (3.0)
|   |   |   |   |   |   |   |   |   |   |   |   |   |   |   |   |   PAR_SFMV8 > 0.000236: Jazz (4.0)
|   |   |   |   |   |   |   |   |   |   |   |   |   |   |   |   PAR_ASEV3 > 0.000487
|   |   |   |   |   |   |   |   |   |   |   |   |   |   |   |   |   PAR_ASE15 <= -0.13075: Rock (5.0)
|   |   |   |   |   |   |   |   |   |   |   |   |   |   |   |   |   PAR_ASE15 > -0.13075: Classical (3.0)
|   |   |   |   |   |   |   |   |   |   |   |   |   |   PAR_SFMV22 > 0.001449
|   |   |   |   |   |   |   |   |   |   |   |   |   |   |   PAR_SFMV8 <= 0.000163
|   |   |   |   |   |   |   |   |   |   |   |   |   |   |   |   PAR_ASE2 <= -0.16796: Jazz (2.0/1.0)
|   |   |   |   |   |   |   |   |   |   |   |   |   |   |   |   PAR_ASE2 > -0.16796: Classical (9.0)
|   |   |   |   |   |   |   |   |   |   |   |   |   |   |   PAR_SFMV8 > 0.000163
|   |   |   |   |   |   |   |   |   |   |   |   |   |   |   |   PAR_SFM16 <= 0.025749
|   |   |   |   |   |   |   |   |   |   |   |   |   |   |   |   |   PAR_ASE13 <= -0.1296: Jazz (6.0)
|   |   |   |   |   |   |   |   |   |   |   |   |   |   |   |   |   PAR_ASE13 > -0.1296: Classical (11.0/1.0)
|   |   |   |   |   |   |   |   |   |   |   |   |   |   |   |   PAR_SFM16 > 0.025749: Jazz (14.0)
|   |   |   |   |   |   |   |   |   |   |   |   |   PAR_ASEV26 > 0.000685
|   |   |   |   |   |   |   |   |   |   |   |   |   |   PAR_ASEV8 <= 0.000488
|   |   |   |   |   |   |   |   |   |   |   |   |   |   |   PAR_SFM11 <= 0.019163
|   |   |   |   |   |   |   |   |   |   |   |   |   |   |   |   PAR_SFMV18 <= 0.001015: Jazz (3.0)
|   |   |   |   |   |   |   |   |   |   |   |   |   |   |   |   PAR_SFMV18 > 0.001015: Classical (4.0)
|   |   |   |   |   |   |   |   |   |   |   |   |   |   |   PAR_SFM11 > 0.019163: Jazz (17.0)
|   |   |   |   |   |   |   |   |   |   |   |   |   |   PAR_ASEV8 > 0.000488: Classical (12.0/1.0)
|   |   |   |   |   |   |   |   |   PAR_THR_1RMS_TOT > 0.14859
|   |   |   |   |   |   |   |   |   |   PAR_SFMV22 <= 0.001186
|   |   |   |   |   |   |   |   |   |   |   PAR_PEAK_RMS10FR_VAR <= 0.3058
|   |   |   |   |   |   |   |   |   |   |   |   PAR_SFMV18 <= 0.000604
|   |   |   |   |   |   |   |   |   |   |   |   |   PAR_ASE32 <= -0.25675: Blues (2.0)
|   |   |   |   |   |   |   |   |   |   |   |   |   PAR_ASE32 > -0.25675: Rock (6.0)
|   |   |   |   |   |   |   |   |   |   |   |   PAR_SFMV18 > 0.000604
|   |   |   |   |   |   |   |   |   |   |   |   |   PAR_ASE33 <= -0.31424: Jazz (4.0)
|   |   |   |   |   |   |   |   |   |   |   |   |   PAR_ASE33 > -0.31424: Classical (8.0)
|   |   |   |   |   |   |   |   |   |   |   PAR_PEAK_RMS10FR_VAR > 0.3058
|   |   |   |   |   |   |   |   |   |   |   |   PAR_ASE32 <= -0.21442
|   |   |   |   |   |   |   |   |   |   |   |   |   PAR_SFM2 <= 0.005825
|   |   |   |   |   |   |   |   |   |   |   |   |   |   PAR_SFMV22 <= 0.000833
|   |   |   |   |   |   |   |   |   |   |   |   |   |   |   PAR_ASE17 <= -0.15053: Jazz (6.0)
|   |   |   |   |   |   |   |   |   |   |   |   |   |   |   PAR_ASE17 > -0.15053
|   |   |   |   |   |   |   |   |   |   |   |   |   |   |   |   PAR_ASE3 <= -0.20533: Jazz (6.0)
|   |   |   |   |   |   |   |   |   |   |   |   |   |   |   |   PAR_ASE3 > -0.20533
|   |   |   |   |   |   |   |   |   |   |   |   |   |   |   |   |   PAR_ASEV2 <= 0.00091
|   |   |   |   |   |   |   |   |   |   |   |   |   |   |   |   |   |   PAR_ASEV3 <= 0.000172: Jazz (2.0)
|   |   |   |   |   |   |   |   |   |   |   |   |   |   |   |   |   |   PAR_ASEV3 > 0.000172
|   |   |   |   |   |   |   |   |   |   |   |   |   |   |   |   |   |   |   PAR_MFCC1 <= 1.204: Classical (50.0)
|   |   |   |   |   |   |   |   |   |   |   |   |   |   |   |   |   |   |   PAR_MFCC1 > 1.204
|   |   |   |   |   |   |   |   |   |   |   |   |   |   |   |   |   |   |   |   PAR_ASEV26 <= 0.000174: Classical (22.0)
|   |   |   |   |   |   |   |   |   |   |   |   |   |   |   |   |   |   |   |   PAR_ASEV26 > 0.000174
|   |   |   |   |   |   |   |   |   |   |   |   |   |   |   |   |   |   |   |   |   PAR_SFM2 <= 0.00466
|   |   |   |   |   |   |   |   |   |   |   |   |   |   |   |   |   |   |   |   |   |   PAR_MFCC12 <= 0.011688: Classical (12.0)
|   |   |   |   |   |   |   |   |   |   |   |   |   |   |   |   |   |   |   |   |   |   PAR_MFCC12 > 0.011688: Jazz (3.0)
|   |   |   |   |   |   |   |   |   |   |   |   |   |   |   |   |   |   |   |   |   PAR_SFM2 > 0.00466: Jazz (6.0)
|   |   |   |   |   |   |   |   |   |   |   |   |   |   |   |   |   PAR_ASEV2 > 0.00091: Jazz (5.0/1.0)
|   |   |   |   |   |   |   |   |   |   |   |   |   |   PAR_SFMV22 > 0.000833
|   |   |   |   |   |   |   |   |   |   |   |   |   |   |   PAR_SFM11 <= 0.027218
|   |   |   |   |   |   |   |   |   |   |   |   |   |   |   |   PAR_SFM2 <= 0.005053
|   |   |   |   |   |   |   |   |   |   |   |   |   |   |   |   |   PAR_ASEV1 <= 0.000203: Jazz (2.0)
|   |   |   |   |   |   |   |   |   |   |   |   |   |   |   |   |   PAR_ASEV1 > 0.000203
|   |   |   |   |   |   |   |   |   |   |   |   |   |   |   |   |   |   PAR_SFMV18 <= 0.001117: Classical (16.0/1.0)
|   |   |   |   |   |   |   |   |   |   |   |   |   |   |   |   |   |   PAR_SFMV18 > 0.001117: Jazz (2.0)
|   |   |   |   |   |   |   |   |   |   |   |   |   |   |   |   PAR_SFM2 > 0.005053: Jazz (11.0/1.0)
|   |   |   |   |   |   |   |   |   |   |   |   |   |   |   PAR_SFM11 > 0.027218: Jazz (32.0/1.0)
|   |   |   |   |   |   |   |   |   |   |   |   |   PAR_SFM2 > 0.005825: Jazz (13.0)
|   |   |   |   |   |   |   |   |   |   |   |   PAR_ASE32 > -0.21442: Jazz (18.0)
|   |   |   |   |   |   |   |   |   |   PAR_SFMV22 > 0.001186: Jazz (36.0)
|   |   |   |   |   |   |   |   PAR_SFM9 > 0.069338
|   |   |   |   |   |   |   |   |   PAR_ASC_V <= 0.1068: Classical (6.0)
|   |   |   |   |   |   |   |   |   PAR_ASC_V > 0.1068
|   |   |   |   |   |   |   |   |   |   PAR_ASE22 <= -0.15664: Jazz (29.0)
|   |   |   |   |   |   |   |   |   |   PAR_ASE22 > -0.15664
|   |   |   |   |   |   |   |   |   |   |   PAR_ASE2 <= -0.15501
|   |   |   |   |   |   |   |   |   |   |   |   PAR_SFM8 <= 0.036353: Jazz (10.0)
|   |   |   |   |   |   |   |   |   |   |   |   PAR_SFM8 > 0.036353: Classical (2.0)
|   |   |   |   |   |   |   |   |   |   |   PAR_ASE2 > -0.15501: Rock (4.0)
|   |   |   |   |   |   |   PAR_ASEV2 > 0.001126
|   |   |   |   |   |   |   |   PAR_MFCC12 <= -0.14936: Classical (5.0/1.0)
|   |   |   |   |   |   |   |   PAR_MFCC12 > -0.14936
|   |   |   |   |   |   |   |   |   PAR_ASS <= 1.3012: Jazz (47.0/1.0)
|   |   |   |   |   |   |   |   |   PAR_ASS > 1.3012: Classical (3.0)
|   |   |   |   PAR_SFM22 > 0.094012
|   |   |   |   |   PAR_SFM22 <= 0.11941
|   |   |   |   |   |   PAR_SFM9 <= 0.064668
|   |   |   |   |   |   |   PAR_ASE_MV <= 0.000592
|   |   |   |   |   |   |   |   PAR_ASE2 <= -0.17959
|   |   |   |   |   |   |   |   |   PAR_PEAK_RMS10FR_MEAN <= 5.0393: Jazz (14.0)
|   |   |   |   |   |   |   |   |   PAR_PEAK_RMS10FR_MEAN > 5.0393
|   |   |   |   |   |   |   |   |   |   PAR_SFM9 <= 0.02691: Jazz (4.0)
|   |   |   |   |   |   |   |   |   |   PAR_SFM9 > 0.02691
|   |   |   |   |   |   |   |   |   |   |   PAR_SFMV14 <= 0.000451
|   |   |   |   |   |   |   |   |   |   |   |   PAR_ASE13 <= -0.10163: Classical (9.0)
|   |   |   |   |   |   |   |   |   |   |   |   PAR_ASE13 > -0.10163: Jazz (7.0)
|   |   |   |   |   |   |   |   |   |   |   PAR_SFMV14 > 0.000451: Classical (39.0)
|   |   |   |   |   |   |   |   PAR_ASE2 > -0.17959
|   |   |   |   |   |   |   |   |   PAR_SFMV23 <= 0.001003
|   |   |   |   |   |   |   |   |   |   PAR_PEAK_RMS_TOT <= 5.9241
|   |   |   |   |   |   |   |   |   |   |   PAR_ASE32 <= -0.26051
|   |   |   |   |   |   |   |   |   |   |   |   PAR_ASEV5 <= 0.000658
|   |   |   |   |   |   |   |   |   |   |   |   |   PAR_ASE33 <= -0.26937
|   |   |   |   |   |   |   |   |   |   |   |   |   |   PAR_ASE2 <= -0.15505
|   |   |   |   |   |   |   |   |   |   |   |   |   |   |   PAR_ASEV24 <= 0.000486
|   |   |   |   |   |   |   |   |   |   |   |   |   |   |   |   PAR_SFM24 <= 0.082826
|   |   |   |   |   |   |   |   |   |   |   |   |   |   |   |   |   PAR_ASEV33 <= 0.000196: Classical (2.0)
|   |   |   |   |   |   |   |   |   |   |   |   |   |   |   |   |   PAR_ASEV33 > 0.000196: Jazz (5.0)
|   |   |   |   |   |   |   |   |   |   |   |   |   |   |   |   PAR_SFM24 > 0.082826: Jazz (58.0)
|   |   |   |   |   |   |   |   |   |   |   |   |   |   |   PAR_ASEV24 > 0.000486: Classical (7.0/1.0)
|   |   |   |   |   |   |   |   |   |   |   |   |   |   PAR_ASE2 > -0.15505
|   |   |   |   |   |   |   |   |   |   |   |   |   |   |   PAR_THR_1RMS_TOT <= 0.12625: Jazz (3.0)
|   |   |   |   |   |   |   |   |   |   |   |   |   |   |   PAR_THR_1RMS_TOT > 0.12625: Classical (6.0/1.0)
|   |   |   |   |   |   |   |   |   |   |   |   |   PAR_ASE33 > -0.26937: Classical (7.0/1.0)
|   |   |   |   |   |   |   |   |   |   |   |   PAR_ASEV5 > 0.000658: Classical (8.0/1.0)
|   |   |   |   |   |   |   |   |   |   |   PAR_ASE32 > -0.26051
|   |   |   |   |   |   |   |   |   |   |   |   PAR_ASE13 <= -0.077276
|   |   |   |   |   |   |   |   |   |   |   |   |   PAR_SFMV13 <= 0.000908
|   |   |   |   |   |   |   |   |   |   |   |   |   |   PAR_SFMV22 <= 0.000296: Jazz (83.0)
|   |   |   |   |   |   |   |   |   |   |   |   |   |   PAR_SFMV22 > 0.000296
|   |   |   |   |   |   |   |   |   |   |   |   |   |   |   PAR_SFM24 <= 0.082322
|   |   |   |   |   |   |   |   |   |   |   |   |   |   |   |   PAR_ASE2 <= -0.13359: Classical (3.0)
|   |   |   |   |   |   |   |   |   |   |   |   |   |   |   |   PAR_ASE2 > -0.13359: Jazz (2.0)
|   |   |   |   |   |   |   |   |   |   |   |   |   |   |   PAR_SFM24 > 0.082322
|   |   |   |   |   |   |   |   |   |   |   |   |   |   |   |   PAR_SFM22 <= 0.11498
|   |   |   |   |   |   |   |   |   |   |   |   |   |   |   |   |   PAR_ASEV24 <= 0.000181
|   |   |   |   |   |   |   |   |   |   |   |   |   |   |   |   |   |   PAR_SFM4 <= 0.074822: Jazz (20.0)
|   |   |   |   |   |   |   |   |   |   |   |   |   |   |   |   |   |   PAR_SFM4 > 0.074822
|   |   |   |   |   |   |   |   |   |   |   |   |   |   |   |   |   |   |   PAR_SFMV18 <= 0.00063: Classical (4.0)
|   |   |   |   |   |   |   |   |   |   |   |   |   |   |   |   |   |   |   PAR_SFMV18 > 0.00063: Jazz (5.0)
|   |   |   |   |   |   |   |   |   |   |   |   |   |   |   |   |   PAR_ASEV24 > 0.000181: Jazz (52.0)
|   |   |   |   |   |   |   |   |   |   |   |   |   |   |   |   PAR_SFM22 > 0.11498: Classical (2.0)
|   |   |   |   |   |   |   |   |   |   |   |   |   PAR_SFMV13 > 0.000908: Jazz (107.0/2.0)
|   |   |   |   |   |   |   |   |   |   |   |   PAR_ASE13 > -0.077276
|   |   |   |   |   |   |   |   |   |   |   |   |   PAR_SC_V <= 2655.8: Jazz (2.0)
|   |   |   |   |   |   |   |   |   |   |   |   |   PAR_SC_V > 2655.8: Classical (3.0)
|   |   |   |   |   |   |   |   |   |   PAR_PEAK_RMS_TOT > 5.9241
|   |   |   |   |   |   |   |   |   |   |   PAR_ASE13 <= -0.13107: Jazz (39.0)
|   |   |   |   |   |   |   |   |   |   |   PAR_ASE13 > -0.13107
|   |   |   |   |   |   |   |   |   |   |   |   PAR_SFMV22 <= 0.000331
|   |   |   |   |   |   |   |   |   |   |   |   |   PAR_ASEV8 <= 0.000693
|   |   |   |   |   |   |   |   |   |   |   |   |   |   PAR_SFMV23 <= 0.000255
|   |   |   |   |   |   |   |   |   |   |   |   |   |   |   PAR_ASEV24 <= 0.000237: Jazz (6.0)
|   |   |   |   |   |   |   |   |   |   |   |   |   |   |   PAR_ASEV24 > 0.000237: Classical (3.0/1.0)
|   |   |   |   |   |   |   |   |   |   |   |   |   |   PAR_SFMV23 > 0.000255: Jazz (51.0)
|   |   |   |   |   |   |   |   |   |   |   |   |   PAR_ASEV8 > 0.000693: Classical (6.0/1.0)
|   |   |   |   |   |   |   |   |   |   |   |   PAR_SFMV22 > 0.000331
|   |   |   |   |   |   |   |   |   |   |   |   |   PAR_ASE_MV <= 0.000484
|   |   |   |   |   |   |   |   |   |   |   |   |   |   PAR_ASE17 <= -0.1214
|   |   |   |   |   |   |   |   |   |   |   |   |   |   |   PAR_SFMV13 <= 0.001573
|   |   |   |   |   |   |   |   |   |   |   |   |   |   |   |   PAR_SFM2 <= 0.002854: Jazz (5.0)
|   |   |   |   |   |   |   |   |   |   |   |   |   |   |   |   PAR_SFM2 > 0.002854
|   |   |   |   |   |   |   |   |   |   |   |   |   |   |   |   |   PAR_SFMV17 <= 0.000296: Jazz (4.0)
|   |   |   |   |   |   |   |   |   |   |   |   |   |   |   |   |   PAR_SFMV17 > 0.000296
|   |   |   |   |   |   |   |   |   |   |   |   |   |   |   |   |   |   PAR_SFM_MV <= 0.000726
|   |   |   |   |   |   |   |   |   |   |   |   |   |   |   |   |   |   |   PAR_SFMV22 <= 0.00038
|   |   |   |   |   |   |   |   |   |   |   |   |   |   |   |   |   |   |   |   PAR_ASS_V <= 0.039722: Classical (2.0)
|   |   |   |   |   |   |   |   |   |   |   |   |   |   |   |   |   |   |   |   PAR_ASS_V > 0.039722: Jazz (6.0)
|   |   |   |   |   |   |   |   |   |   |   |   |   |   |   |   |   |   |   PAR_SFMV22 > 0.00038
|   |   |   |   |   |   |   |   |   |   |   |   |   |   |   |   |   |   |   |   PAR_ASE3 <= -0.16529: Jazz (3.0)
|   |   |   |   |   |   |   |   |   |   |   |   |   |   |   |   |   |   |   |   PAR_ASE3 > -0.16529
|   |   |   |   |   |   |   |   |   |   |   |   |   |   |   |   |   |   |   |   |   PAR_SFMV23 <= 0.000633
|   |   |   |   |   |   |   |   |   |   |   |   |   |   |   |   |   |   |   |   |   |   PAR_ASEV1 <= 0.000295
|   |   |   |   |   |   |   |   |   |   |   |   |   |   |   |   |   |   |   |   |   |   |   PAR_SFMV13 <= 0.000405: Jazz (2.0)
|   |   |   |   |   |   |   |   |   |   |   |   |   |   |   |   |   |   |   |   |   |   |   PAR_SFMV13 > 0.000405: Classical (24.0/2.0)
|   |   |   |   |   |   |   |   |   |   |   |   |   |   |   |   |   |   |   |   |   |   PAR_ASEV1 > 0.000295
|   |   |   |   |   |   |   |   |   |   |   |   |   |   |   |   |   |   |   |   |   |   |   PAR_ASEV8 <= 0.000376: Jazz (7.0)
|   |   |   |   |   |   |   |   |   |   |   |   |   |   |   |   |   |   |   |   |   |   |   PAR_ASEV8 > 0.000376: Classical (4.0)
|   |   |   |   |   |   |   |   |   |   |   |   |   |   |   |   |   |   |   |   |   PAR_SFMV23 > 0.000633: Classical (45.0)
|   |   |   |   |   |   |   |   |   |   |   |   |   |   |   |   |   |   PAR_SFM_MV > 0.000726
|   |   |   |   |   |   |   |   |   |   |   |   |   |   |   |   |   |   |   PAR_SFM8 <= 0.019065: Classical (4.0)
|   |   |   |   |   |   |   |   |   |   |   |   |   |   |   |   |   |   |   PAR_SFM8 > 0.019065
|   |   |   |   |   |   |   |   |   |   |   |   |   |   |   |   |   |   |   |   PAR_THR_2RMS_TOT <= 0.028612
|   |   |   |   |   |   |   |   |   |   |   |   |   |   |   |   |   |   |   |   |   PAR_ASEV24 <= 0.000288: Jazz (3.0)
|   |   |   |   |   |   |   |   |   |   |   |   |   |   |   |   |   |   |   |   |   PAR_ASEV24 > 0.000288: Classical (3.0)
|   |   |   |   |   |   |   |   |   |   |   |   |   |   |   |   |   |   |   |   PAR_THR_2RMS_TOT > 0.028612: Jazz (9.0)
|   |   |   |   |   |   |   |   |   |   |   |   |   |   |   PAR_SFMV13 > 0.001573: Jazz (5.0)
|   |   |   |   |   |   |   |   |   |   |   |   |   |   PAR_ASE17 > -0.1214
|   |   |   |   |   |   |   |   |   |   |   |   |   |   |   PAR_ASEV1 <= 0.000372
|   |   |   |   |   |   |   |   |   |   |   |   |   |   |   |   PAR_TC <= 3.0241: Jazz (28.0/1.0)
|   |   |   |   |   |   |   |   |   |   |   |   |   |   |   |   PAR_TC > 3.0241: Classical (2.0)
|   |   |   |   |   |   |   |   |   |   |   |   |   |   |   PAR_ASEV1 > 0.000372: Classical (4.0)
|   |   |   |   |   |   |   |   |   |   |   |   |   PAR_ASE_MV > 0.000484: Jazz (6.0)
|   |   |   |   |   |   |   |   |   PAR_SFMV23 > 0.001003
|   |   |   |   |   |   |   |   |   |   PAR_ASEV16 <= 0.000276: Classical (13.0)
|   |   |   |   |   |   |   |   |   |   PAR_ASEV16 > 0.000276
|   |   |   |   |   |   |   |   |   |   |   PAR_ASE15 <= -0.11633
|   |   |   |   |   |   |   |   |   |   |   |   PAR_TC <= 2.3235: Classical (4.0/1.0)
|   |   |   |   |   |   |   |   |   |   |   |   PAR_TC > 2.3235: Jazz (15.0)
|   |   |   |   |   |   |   |   |   |   |   PAR_ASE15 > -0.11633: Classical (8.0/1.0)
|   |   |   |   |   |   |   PAR_ASE_MV > 0.000592: Jazz (33.0/2.0)
|   |   |   |   |   |   PAR_SFM9 > 0.064668
|   |   |   |   |   |   |   PAR_ASE33 <= -0.2999
|   |   |   |   |   |   |   |   PAR_SFMV22 <= 0.000625: Rock (9.0)
|   |   |   |   |   |   |   |   PAR_SFMV22 > 0.000625: Jazz (3.0/1.0)
|   |   |   |   |   |   |   PAR_ASE33 > -0.2999
|   |   |   |   |   |   |   |   PAR_ASE_MV <= 0.000136: Metal (2.0)
|   |   |   |   |   |   |   |   PAR_ASE_MV > 0.000136
|   |   |   |   |   |   |   |   |   PAR_MFCC12 <= -0.011672
|   |   |   |   |   |   |   |   |   |   PAR_SFM2 <= 0.004685: Jazz (7.0)
|   |   |   |   |   |   |   |   |   |   PAR_SFM2 > 0.004685
|   |   |   |   |   |   |   |   |   |   |   PAR_PEAK_RMS10FR_VAR <= 3.2152: Jazz (6.0)
|   |   |   |   |   |   |   |   |   |   |   PAR_PEAK_RMS10FR_VAR > 3.2152
|   |   |   |   |   |   |   |   |   |   |   |   PAR_ASS_V <= 0.16255: Classical (16.0)
|   |   |   |   |   |   |   |   |   |   |   |   PAR_ASS_V > 0.16255: Jazz (2.0)
|   |   |   |   |   |   |   |   |   PAR_MFCC12 > -0.011672: Jazz (18.0/1.0)
|   |   |   |   |   PAR_SFM22 > 0.11941
|   |   |   |   |   |   PAR_SFM24 <= 0.082638: Jazz (4.0/1.0)
|   |   |   |   |   |   PAR_SFM24 > 0.082638: Classical (46.0/1.0)
|   |   |   PAR_ASE3 > -0.13226
|   |   |   |   PAR_SFM22 <= 0.056038
|   |   |   |   |   PAR_SFMV22 <= 0.000914: Blues (13.0/1.0)
|   |   |   |   |   PAR_SFMV22 > 0.000914: Jazz (16.0/1.0)
|   |   |   |   PAR_SFM22 > 0.056038
|   |   |   |   |   PAR_ASE22 <= -0.16085
|   |   |   |   |   |   PAR_ASEV8 <= 0.000775
|   |   |   |   |   |   |   PAR_TC <= 2.0309
|   |   |   |   |   |   |   |   PAR_ASS_V <= 0.09944
|   |   |   |   |   |   |   |   |   PAR_SFMV18 <= 0.000835
|   |   |   |   |   |   |   |   |   |   PAR_MFCC7 <= 0.15319
|   |   |   |   |   |   |   |   |   |   |   PAR_ASEV1 <= 0.000559
|   |   |   |   |   |   |   |   |   |   |   |   PAR_SFM8 <= 0.024983
|   |   |   |   |   |   |   |   |   |   |   |   |   PAR_SFMV8 <= 0.000186: Jazz (3.0)
|   |   |   |   |   |   |   |   |   |   |   |   |   PAR_SFMV8 > 0.000186: Classical (3.0)
|   |   |   |   |   |   |   |   |   |   |   |   PAR_SFM8 > 0.024983: Classical (18.0)
|   |   |   |   |   |   |   |   |   |   |   PAR_ASEV1 > 0.000559: Jazz (3.0)
|   |   |   |   |   |   |   |   |   |   PAR_MFCC7 > 0.15319: Jazz (5.0)
|   |   |   |   |   |   |   |   |   PAR_SFMV18 > 0.000835: Jazz (5.0)
|   |   |   |   |   |   |   |   PAR_ASS_V > 0.09944: Jazz (17.0/1.0)
|   |   |   |   |   |   |   PAR_TC > 2.0309
|   |   |   |   |   |   |   |   PAR_ASE3 <= -0.078362
|   |   |   |   |   |   |   |   |   PAR_ASE13 <= -0.11034
|   |   |   |   |   |   |   |   |   |   PAR_ASE33 <= -0.31353
|   |   |   |   |   |   |   |   |   |   |   PAR_SFMV18 <= 0.00022: Rock (10.0)
|   |   |   |   |   |   |   |   |   |   |   PAR_SFMV18 > 0.00022
|   |   |   |   |   |   |   |   |   |   |   |   PAR_ASE32 <= -0.2278
|   |   |   |   |   |   |   |   |   |   |   |   |   PAR_SFMV14 <= 0.000527: Rock (7.0)
|   |   |   |   |   |   |   |   |   |   |   |   |   PAR_SFMV14 > 0.000527: Jazz (8.0/1.0)
|   |   |   |   |   |   |   |   |   |   |   |   PAR_ASE32 > -0.2278: Jazz (37.0)
|   |   |   |   |   |   |   |   |   |   PAR_ASE33 > -0.31353
|   |   |   |   |   |   |   |   |   |   |   PAR_SFM24 <= 0.081105
|   |   |   |   |   |   |   |   |   |   |   |   PAR_SFMV24 <= 0.000115
|   |   |   |   |   |   |   |   |   |   |   |   |   PAR_SFMV23 <= 0.000024: Classical (2.0)
|   |   |   |   |   |   |   |   |   |   |   |   |   PAR_SFMV23 > 0.000024
|   |   |   |   |   |   |   |   |   |   |   |   |   |   PAR_SFM22 <= 0.098112
|   |   |   |   |   |   |   |   |   |   |   |   |   |   |   PAR_ASEV3 <= 0.000274: Classical (3.0)
|   |   |   |   |   |   |   |   |   |   |   |   |   |   |   PAR_ASEV3 > 0.000274: Jazz (3.0)
|   |   |   |   |   |   |   |   |   |   |   |   |   |   PAR_SFM22 > 0.098112: Jazz (39.0)
|   |   |   |   |   |   |   |   |   |   |   |   PAR_SFMV24 > 0.000115: Blues (2.0)
|   |   |   |   |   |   |   |   |   |   |   PAR_SFM24 > 0.081105
|   |   |   |   |   |   |   |   |   |   |   |   PAR_ASE23 <= -0.1556
|   |   |   |   |   |   |   |   |   |   |   |   |   PAR_SFM9 <= 0.069502
|   |   |   |   |   |   |   |   |   |   |   |   |   |   PAR_ASE2 <= -0.097024: Jazz (504.0/8.0)
|   |   |   |   |   |   |   |   |   |   |   |   |   |   PAR_ASE2 > -0.097024
|   |   |   |   |   |   |   |   |   |   |   |   |   |   |   PAR_ASE14 <= -0.13205: Jazz (6.0)
|   |   |   |   |   |   |   |   |   |   |   |   |   |   |   PAR_ASE14 > -0.13205: Rock (3.0)
|   |   |   |   |   |   |   |   |   |   |   |   |   PAR_SFM9 > 0.069502
|   |   |   |   |   |   |   |   |   |   |   |   |   |   PAR_ASE33 <= -0.30003
|   |   |   |   |   |   |   |   |   |   |   |   |   |   |   PAR_ASE13 <= -0.13509: Jazz (9.0)
|   |   |   |   |   |   |   |   |   |   |   |   |   |   |   PAR_ASE13 > -0.13509
|   |   |   |   |   |   |   |   |   |   |   |   |   |   |   |   PAR_SFMV18 <= 0.000652: Rock (11.0)
|   |   |   |   |   |   |   |   |   |   |   |   |   |   |   |   PAR_SFMV18 > 0.000652: Jazz (2.0)
|   |   |   |   |   |   |   |   |   |   |   |   |   |   PAR_ASE33 > -0.30003
|   |   |   |   |   |   |   |   |   |   |   |   |   |   |   PAR_ASEV1 <= 0.00113: Jazz (98.0/3.0)
|   |   |   |   |   |   |   |   |   |   |   |   |   |   |   PAR_ASEV1 > 0.00113: Rock (4.0/1.0)
|   |   |   |   |   |   |   |   |   |   |   |   PAR_ASE23 > -0.1556
|   |   |   |   |   |   |   |   |   |   |   |   |   PAR_ASE13 <= -0.12641: Jazz (10.0)
|   |   |   |   |   |   |   |   |   |   |   |   |   PAR_ASE13 > -0.12641
|   |   |   |   |   |   |   |   |   |   |   |   |   |   PAR_ASE2 <= -0.15003: Rock (2.0)
|   |   |   |   |   |   |   |   |   |   |   |   |   |   PAR_ASE2 > -0.15003: Classical (3.0)
|   |   |   |   |   |   |   |   |   PAR_ASE13 > -0.11034
|   |   |   |   |   |   |   |   |   |   PAR_ASE32 <= -0.24753
|   |   |   |   |   |   |   |   |   |   |   PAR_SFM4 <= 0.083054
|   |   |   |   |   |   |   |   |   |   |   |   PAR_ASEV33 <= 0.000218
|   |   |   |   |   |   |   |   |   |   |   |   |   PAR_ASEV5 <= 0.000256: Jazz (2.0)
|   |   |   |   |   |   |   |   |   |   |   |   |   PAR_ASEV5 > 0.000256: Classical (5.0)
|   |   |   |   |   |   |   |   |   |   |   |   PAR_ASEV33 > 0.000218: Jazz (20.0)
|   |   |   |   |   |   |   |   |   |   |   PAR_SFM4 > 0.083054: Classical (12.0)
|   |   |   |   |   |   |   |   |   |   PAR_ASE32 > -0.24753: Jazz (30.0)
|   |   |   |   |   |   |   |   PAR_ASE3 > -0.078362
|   |   |   |   |   |   |   |   |   PAR_SFM16 <= 0.071812
|   |   |   |   |   |   |   |   |   |   PAR_ASC_V <= 0.053859: Rock (2.0)
|   |   |   |   |   |   |   |   |   |   PAR_ASC_V > 0.053859: Jazz (10.0)
|   |   |   |   |   |   |   |   |   PAR_SFM16 > 0.071812: Pop (3.0)
|   |   |   |   |   |   PAR_ASEV8 > 0.000775
|   |   |   |   |   |   |   PAR_MFCC1 <= 0.72007
|   |   |   |   |   |   |   |   PAR_SFMV18 <= 0.000095: Jazz (2.0)
|   |   |   |   |   |   |   |   PAR_SFMV18 > 0.000095: Rock (21.0)
|   |   |   |   |   |   |   PAR_MFCC1 > 0.72007
|   |   |   |   |   |   |   |   PAR_ASEV3 <= 0.002454
|   |   |   |   |   |   |   |   |   PAR_PEAK_RMS10FR_VAR <= 275.6: Jazz (14.0/1.0)
|   |   |   |   |   |   |   |   |   PAR_PEAK_RMS10FR_VAR > 275.6: Classical (5.0)
|   |   |   |   |   |   |   |   PAR_ASEV3 > 0.002454: Pop (2.0)
|   |   |   |   |   PAR_ASE22 > -0.16085
|   |   |   |   |   |   PAR_SFM11 <= 0.044565
|   |   |   |   |   |   |   PAR_ASE2 <= -0.10934
|   |   |   |   |   |   |   |   PAR_ASE32 <= -0.25513
|   |   |   |   |   |   |   |   |   PAR_ASEV3 <= 0.000092: Jazz (3.0)
|   |   |   |   |   |   |   |   |   PAR_ASEV3 > 0.000092
|   |   |   |   |   |   |   |   |   |   PAR_THR_2RMS_TOT <= 0.036685
|   |   |   |   |   |   |   |   |   |   |   PAR_ASE3 <= -0.11897
|   |   |   |   |   |   |   |   |   |   |   |   PAR_SFMV14 <= 0.000296
|   |   |   |   |   |   |   |   |   |   |   |   |   PAR_ASEV24 <= 0.000172: Classical (4.0/1.0)
|   |   |   |   |   |   |   |   |   |   |   |   |   PAR_ASEV24 > 0.000172: Jazz (2.0)
|   |   |   |   |   |   |   |   |   |   |   |   PAR_SFMV14 > 0.000296
|   |   |   |   |   |   |   |   |   |   |   |   |   PAR_ASEV1 <= 0.000349: Classical (63.0)
|   |   |   |   |   |   |   |   |   |   |   |   |   PAR_ASEV1 > 0.000349
|   |   |   |   |   |   |   |   |   |   |   |   |   |   PAR_ASE33 <= -0.31052
|   |   |   |   |   |   |   |   |   |   |   |   |   |   |   PAR_ASEV1 <= 0.000367: Classical (3.0)
|   |   |   |   |   |   |   |   |   |   |   |   |   |   |   PAR_ASEV1 > 0.000367: Jazz (4.0)
|   |   |   |   |   |   |   |   |   |   |   |   |   |   PAR_ASE33 > -0.31052
|   |   |   |   |   |   |   |   |   |   |   |   |   |   |   PAR_ASEV5 <= 0.000589: Classical (38.0)
|   |   |   |   |   |   |   |   |   |   |   |   |   |   |   PAR_ASEV5 > 0.000589
|   |   |   |   |   |   |   |   |   |   |   |   |   |   |   |   PAR_SFM24 <= 0.082847: Classical (10.0/2.0)
|   |   |   |   |   |   |   |   |   |   |   |   |   |   |   |   PAR_SFM24 > 0.082847: Jazz (2.0)
|   |   |   |   |   |   |   |   |   |   |   PAR_ASE3 > -0.11897
|   |   |   |   |   |   |   |   |   |   |   |   PAR_ASE33 <= -0.29292
|   |   |   |   |   |   |   |   |   |   |   |   |   PAR_SFMV8 <= 0.000167: Classical (2.0)
|   |   |   |   |   |   |   |   |   |   |   |   |   PAR_SFMV8 > 0.000167: Jazz (16.0/1.0)
|   |   |   |   |   |   |   |   |   |   |   |   PAR_ASE33 > -0.29292
|   |   |   |   |   |   |   |   |   |   |   |   |   PAR_ASEV3 <= 0.000624: Classical (19.0)
|   |   |   |   |   |   |   |   |   |   |   |   |   PAR_ASEV3 > 0.000624: Jazz (3.0)
|   |   |   |   |   |   |   |   |   |   PAR_THR_2RMS_TOT > 0.036685: Jazz (5.0)
|   |   |   |   |   |   |   |   PAR_ASE32 > -0.25513
|   |   |   |   |   |   |   |   |   PAR_PEAK_RMS10FR_MEAN <= 16.812
|   |   |   |   |   |   |   |   |   |   PAR_SFM22 <= 0.065986
|   |   |   |   |   |   |   |   |   |   |   PAR_ASEV26 <= 0.000244: Jazz (4.0)
|   |   |   |   |   |   |   |   |   |   |   PAR_ASEV26 > 0.000244: Classical (4.0)
|   |   |   |   |   |   |   |   |   |   PAR_SFM22 > 0.065986
|   |   |   |   |   |   |   |   |   |   |   PAR_ASE33 <= -0.32157
|   |   |   |   |   |   |   |   |   |   |   |   PAR_ASEV26 <= 0.000234: Rock (2.0)
|   |   |   |   |   |   |   |   |   |   |   |   PAR_ASEV26 > 0.000234: Jazz (4.0/1.0)
|   |   |   |   |   |   |   |   |   |   |   PAR_ASE33 > -0.32157: Jazz (83.0/2.0)
|   |   |   |   |   |   |   |   |   PAR_PEAK_RMS10FR_MEAN > 16.812
|   |   |   |   |   |   |   |   |   |   PAR_SFMV8 <= 0.000249: Classical (7.0)
|   |   |   |   |   |   |   |   |   |   PAR_SFMV8 > 0.000249: Jazz (2.0)
|   |   |   |   |   |   |   PAR_ASE2 > -0.10934
|   |   |   |   |   |   |   |   PAR_ASE23 <= -0.16736: Rock (6.0)
|   |   |   |   |   |   |   |   PAR_ASE23 > -0.16736: Classical (3.0)
|   |   |   |   |   |   PAR_SFM11 > 0.044565
|   |   |   |   |   |   |   PAR_SFMV24 <= 0.000045
|   |   |   |   |   |   |   |   PAR_ASEV2 <= 0.000372: Jazz (3.0/1.0)
|   |   |   |   |   |   |   |   PAR_ASEV2 > 0.000372
|   |   |   |   |   |   |   |   |   PAR_ASE22 <= -0.15866: Jazz (2.0)
|   |   |   |   |   |   |   |   |   PAR_ASE22 > -0.15866: Rock (17.0/1.0)
|   |   |   |   |   |   |   PAR_SFMV24 > 0.000045: Pop (2.0/1.0)
|   |   PAR_ASS > 1.3643
|   |   |   PAR_THR_1RMS_TOT <= 0.14388
|   |   |   |   PAR_ASE32 <= -0.23012
|   |   |   |   |   PAR_SFMV24 <= 0.000065
|   |   |   |   |   |   PAR_SFMV14 <= 0.000575
|   |   |   |   |   |   |   PAR_SFM15 <= 0.056329
|   |   |   |   |   |   |   |   PAR_ASE3 <= -0.10276
|   |   |   |   |   |   |   |   |   PAR_SFM11 <= 0.042072
|   |   |   |   |   |   |   |   |   |   PAR_ASEV3 <= 0.000616
|   |   |   |   |   |   |   |   |   |   |   PAR_PEAK_RMS10FR_MEAN <= 5.6235: Jazz (4.0)
|   |   |   |   |   |   |   |   |   |   |   PAR_PEAK_RMS10FR_MEAN > 5.6235
|   |   |   |   |   |   |   |   |   |   |   |   PAR_ASE15 <= -0.14102
|   |   |   |   |   |   |   |   |   |   |   |   |   PAR_ASE32 <= -0.24703: Classical (5.0)
|   |   |   |   |   |   |   |   |   |   |   |   |   PAR_ASE32 > -0.24703: Jazz (11.0/1.0)
|   |   |   |   |   |   |   |   |   |   |   |   PAR_ASE15 > -0.14102
|   |   |   |   |   |   |   |   |   |   |   |   |   PAR_ASE3 <= -0.12161: Classical (76.0)
|   |   |   |   |   |   |   |   |   |   |   |   |   PAR_ASE3 > -0.12161
|   |   |   |   |   |   |   |   |   |   |   |   |   |   PAR_ASE32 <= -0.25761: Classical (11.0)
|   |   |   |   |   |   |   |   |   |   |   |   |   |   PAR_ASE32 > -0.25761: Jazz (5.0/1.0)
|   |   |   |   |   |   |   |   |   |   PAR_ASEV3 > 0.000616
|   |   |   |   |   |   |   |   |   |   |   PAR_ASE_MV <= 0.000374: Classical (6.0)
|   |   |   |   |   |   |   |   |   |   |   PAR_ASE_MV > 0.000374
|   |   |   |   |   |   |   |   |   |   |   |   PAR_SFMV23 <= 0.00119
|   |   |   |   |   |   |   |   |   |   |   |   |   PAR_ASEV8 <= 0.000332
|   |   |   |   |   |   |   |   |   |   |   |   |   |   PAR_ASE15 <= -0.1309: Jazz (2.0)
|   |   |   |   |   |   |   |   |   |   |   |   |   |   PAR_ASE15 > -0.1309: Classical (2.0)
|   |   |   |   |   |   |   |   |   |   |   |   |   PAR_ASEV8 > 0.000332: Jazz (20.0)
|   |   |   |   |   |   |   |   |   |   |   |   PAR_SFMV23 > 0.00119: Classical (3.0)
|   |   |   |   |   |   |   |   |   PAR_SFM11 > 0.042072
|   |   |   |   |   |   |   |   |   |   PAR_SC_V <= 402000: Rock (2.0)
|   |   |   |   |   |   |   |   |   |   PAR_SC_V > 402000: Jazz (3.0/1.0)
|   |   |   |   |   |   |   |   PAR_ASE3 > -0.10276: Rock (7.0/1.0)
|   |   |   |   |   |   |   PAR_SFM15 > 0.056329
|   |   |   |   |   |   |   |   PAR_ASE33 <= -0.28536
|   |   |   |   |   |   |   |   |   PAR_ASE33 <= -0.32887: Rock (7.0)
|   |   |   |   |   |   |   |   |   PAR_ASE33 > -0.32887
|   |   |   |   |   |   |   |   |   |   PAR_ASE22 <= -0.14261
|   |   |   |   |   |   |   |   |   |   |   PAR_SFMV8 <= 0.000166: Rock (3.0/1.0)
|   |   |   |   |   |   |   |   |   |   |   PAR_SFMV8 > 0.000166: Jazz (24.0/1.0)
|   |   |   |   |   |   |   |   |   |   PAR_ASE22 > -0.14261: Rock (3.0)
|   |   |   |   |   |   |   |   PAR_ASE33 > -0.28536: Classical (3.0)
|   |   |   |   |   |   PAR_SFMV14 > 0.000575
|   |   |   |   |   |   |   PAR_ASE3 <= -0.16174: Blues (2.0)
|   |   |   |   |   |   |   PAR_ASE3 > -0.16174
|   |   |   |   |   |   |   |   PAR_ASE33 <= -0.28404
|   |   |   |   |   |   |   |   |   PAR_SFMV13 <= 0.000896
|   |   |   |   |   |   |   |   |   |   PAR_ASEV26 <= 0.00028: Rock (2.0)
|   |   |   |   |   |   |   |   |   |   PAR_ASEV26 > 0.00028: Jazz (4.0/1.0)
|   |   |   |   |   |   |   |   |   PAR_SFMV13 > 0.000896: Jazz (73.0/3.0)
|   |   |   |   |   |   |   |   PAR_ASE33 > -0.28404
|   |   |   |   |   |   |   |   |   PAR_SFMV13 <= 0.001336: Classical (9.0/1.0)
|   |   |   |   |   |   |   |   |   PAR_SFMV13 > 0.001336: Jazz (5.0)
|   |   |   |   |   PAR_SFMV24 > 0.000065: Blues (8.0/1.0)
|   |   |   |   PAR_ASE32 > -0.23012
|   |   |   |   |   PAR_SFM2 <= 0.005115: Jazz (130.0/2.0)
|   |   |   |   |   PAR_SFM2 > 0.005115
|   |   |   |   |   |   PAR_ASEV8 <= 0.000685
|   |   |   |   |   |   |   PAR_THR_1RMS_TOT <= 0.13391
|   |   |   |   |   |   |   |   PAR_SFMV14 <= 0.000497
|   |   |   |   |   |   |   |   |   PAR_SC_V <= 239460
|   |   |   |   |   |   |   |   |   |   PAR_ASS <= 1.4656: Rock (6.0/1.0)
|   |   |   |   |   |   |   |   |   |   PAR_ASS > 1.4656: Jazz (5.0)
|   |   |   |   |   |   |   |   |   PAR_SC_V > 239460: Jazz (33.0/1.0)
|   |   |   |   |   |   |   |   PAR_SFMV14 > 0.000497: Jazz (139.0)
|   |   |   |   |   |   |   PAR_THR_1RMS_TOT > 0.13391
|   |   |   |   |   |   |   |   PAR_ASE14 <= -0.1381
|   |   |   |   |   |   |   |   |   PAR_SFM15 <= 0.053446
|   |   |   |   |   |   |   |   |   |   PAR_ASEV26 <= 0.000281: Jazz (21.0)
|   |   |   |   |   |   |   |   |   |   PAR_ASEV26 > 0.000281
|   |   |   |   |   |   |   |   |   |   |   PAR_SFM15 <= 0.036697: Jazz (8.0)
|   |   |   |   |   |   |   |   |   |   |   PAR_SFM15 > 0.036697
|   |   |   |   |   |   |   |   |   |   |   |   PAR_ASE22 <= -0.14552: Jazz (6.0/1.0)
|   |   |   |   |   |   |   |   |   |   |   |   PAR_ASE22 > -0.14552: Rock (5.0)
|   |   |   |   |   |   |   |   |   PAR_SFM15 > 0.053446
|   |   |   |   |   |   |   |   |   |   PAR_ASE_MV <= 0.000531: Rock (15.0/1.0)
|   |   |   |   |   |   |   |   |   |   PAR_ASE_MV > 0.000531: Jazz (3.0)
|   |   |   |   |   |   |   |   PAR_ASE14 > -0.1381: Jazz (35.0)
|   |   |   |   |   |   PAR_ASEV8 > 0.000685
|   |   |   |   |   |   |   PAR_SFMV14 <= 0.000512: Rock (5.0)
|   |   |   |   |   |   |   PAR_SFMV14 > 0.000512
|   |   |   |   |   |   |   |   PAR_ASEV26 <= 0.000265: Rock (2.0)
|   |   |   |   |   |   |   |   PAR_ASEV26 > 0.000265: Jazz (10.0)
|   |   |   PAR_THR_1RMS_TOT > 0.14388
|   |   |   |   PAR_SFMV24 <= 0.000074
|   |   |   |   |   PAR_SFM9 <= 0.060846
|   |   |   |   |   |   PAR_ASS_V <= 0.04782
|   |   |   |   |   |   |   PAR_SFMV8 <= 0.000223
|   |   |   |   |   |   |   |   PAR_ASE32 <= -0.24313: Classical (10.0)
|   |   |   |   |   |   |   |   PAR_ASE32 > -0.24313: Jazz (3.0)
|   |   |   |   |   |   |   PAR_SFMV8 > 0.000223: Rock (2.0/1.0)
|   |   |   |   |   |   PAR_ASS_V > 0.04782
|   |   |   |   |   |   |   PAR_SFM16 <= 0.028831
|   |   |   |   |   |   |   |   PAR_SFM11 <= 0.0395
|   |   |   |   |   |   |   |   |   PAR_SFMV18 <= 0.000948
|   |   |   |   |   |   |   |   |   |   PAR_THR_2RMS_TOT <= 0.024476
|   |   |   |   |   |   |   |   |   |   |   PAR_ASE2 <= -0.14925: Jazz (7.0)
|   |   |   |   |   |   |   |   |   |   |   PAR_ASE2 > -0.14925: Classical (4.0/1.0)
|   |   |   |   |   |   |   |   |   |   PAR_THR_2RMS_TOT > 0.024476: Classical (8.0)
|   |   |   |   |   |   |   |   |   PAR_SFMV18 > 0.000948: Jazz (12.0)
|   |   |   |   |   |   |   |   PAR_SFM11 > 0.0395: Rock (3.0/1.0)
|   |   |   |   |   |   |   PAR_SFM16 > 0.028831
|   |   |   |   |   |   |   |   PAR_ASE32 <= -0.25789
|   |   |   |   |   |   |   |   |   PAR_ASS <= 1.425: Classical (2.0)
|   |   |   |   |   |   |   |   |   PAR_ASS > 1.425: Rock (12.0)
|   |   |   |   |   |   |   |   PAR_ASE32 > -0.25789
|   |   |   |   |   |   |   |   |   PAR_PEAK_RMS10FR_VAR <= 0.12476: Rock (12.0)
|   |   |   |   |   |   |   |   |   PAR_PEAK_RMS10FR_VAR > 0.12476
|   |   |   |   |   |   |   |   |   |   PAR_SFM2 <= 0.005258: Jazz (48.0)
|   |   |   |   |   |   |   |   |   |   PAR_SFM2 > 0.005258
|   |   |   |   |   |   |   |   |   |   |   PAR_SFMV13 <= 0.000653: Rock (9.0)
|   |   |   |   |   |   |   |   |   |   |   PAR_SFMV13 > 0.000653
|   |   |   |   |   |   |   |   |   |   |   |   PAR_SFM11 <= 0.03091: Jazz (22.0)
|   |   |   |   |   |   |   |   |   |   |   |   PAR_SFM11 > 0.03091
|   |   |   |   |   |   |   |   |   |   |   |   |   PAR_SFMV24 <= 0.000049
|   |   |   |   |   |   |   |   |   |   |   |   |   |   PAR_SFM_MV <= 0.000554: Rock (6.0)
|   |   |   |   |   |   |   |   |   |   |   |   |   |   PAR_SFM_MV > 0.000554
|   |   |   |   |   |   |   |   |   |   |   |   |   |   |   PAR_MFCC20 <= -0.017382
|   |   |   |   |   |   |   |   |   |   |   |   |   |   |   |   PAR_ASE32 <= -0.2371
|   |   |   |   |   |   |   |   |   |   |   |   |   |   |   |   |   PAR_ASE17 <= -0.13813: Rock (7.0/1.0)
|   |   |   |   |   |   |   |   |   |   |   |   |   |   |   |   |   PAR_ASE17 > -0.13813: Jazz (6.0)
|   |   |   |   |   |   |   |   |   |   |   |   |   |   |   |   PAR_ASE32 > -0.2371: Jazz (17.0)
|   |   |   |   |   |   |   |   |   |   |   |   |   |   |   PAR_MFCC20 > -0.017382
|   |   |   |   |   |   |   |   |   |   |   |   |   |   |   |   PAR_ASE2 <= -0.13368: Rock (11.0)
|   |   |   |   |   |   |   |   |   |   |   |   |   |   |   |   PAR_ASE2 > -0.13368: Jazz (4.0/1.0)
|   |   |   |   |   |   |   |   |   |   |   |   |   PAR_SFMV24 > 0.000049: Jazz (2.0)
|   |   |   |   |   PAR_SFM9 > 0.060846
|   |   |   |   |   |   PAR_ASE32 <= -0.20644
|   |   |   |   |   |   |   PAR_ASE17 <= -0.13654
|   |   |   |   |   |   |   |   PAR_SFMV14 <= 0.000709: Rock (156.0)
|   |   |   |   |   |   |   |   PAR_SFMV14 > 0.000709
|   |   |   |   |   |   |   |   |   PAR_SFM9 <= 0.066443: Jazz (3.0)
|   |   |   |   |   |   |   |   |   PAR_SFM9 > 0.066443: Rock (6.0)
|   |   |   |   |   |   |   PAR_ASE17 > -0.13654
|   |   |   |   |   |   |   |   PAR_SFM22 <= 0.082354
|   |   |   |   |   |   |   |   |   PAR_SFM24 <= 0.082702: Jazz (6.0)
|   |   |   |   |   |   |   |   |   PAR_SFM24 > 0.082702: Classical (3.0)
|   |   |   |   |   |   |   |   PAR_SFM22 > 0.082354: Rock (9.0)
|   |   |   |   |   |   PAR_ASE32 > -0.20644: Jazz (4.0)
|   |   |   |   PAR_SFMV24 > 0.000074
|   |   |   |   |   PAR_ASEV8 <= 0.000292: Metal (3.0)
|   |   |   |   |   PAR_ASEV8 > 0.000292: Blues (5.0)

Number of Leaves  : 	593

Size of the tree : 	1185


Time taken to build model: 3.04 seconds

Time taken to test model on training data: 0.31 seconds

=== Error on training data ===

Correctly Classified Instances       12254               98.0712 %
Incorrectly Classified Instances       241                1.9288 %
Kappa statistic                          0.976 
Mean absolute error                      0.0113
Root mean squared error                  0.075 
Relative absolute error                  4.2012 %
Root relative squared error             20.497  %
Total Number of Instances            12495     


=== Detailed Accuracy By Class ===

                 TP Rate  FP Rate  Precision  Recall   F-Measure  MCC      ROC Area  PRC Area  Class
                 0.986    0.003    0.979      0.986    0.983      0.980    0.999     0.991     Pop
                 0.989    0.002    0.987      0.989    0.988      0.986    1.000     0.996     Blues
